<?xml version="1.0"?>
<opencv_storage>
<opencv_ml_svm>
  <format>3</format>
  <svmType>C_SVC</svmType>
  <kernel>
    <type>LINEAR</type></kernel>
  <C>2.6699999999999999</C>
  <term_criteria><epsilon>1.1920928955078125e-07</epsilon>
    <iterations>1000</iterations></term_criteria>
  <var_count>3780</var_count>
  <class_count>2</class_count>
  <class_labels type_id="opencv-matrix">
    <rows>2</rows>
    <cols>1</cols>
    <dt>i</dt>
    <data>
      0 1</data></class_labels>
  <sv_total>1</sv_total>
  <support_vectors>
    <_>
      0.0196785592 0.00642080884 -0.0102831265 -0.0225016978
      -0.00723653333 -0.022729855 -0.00487130461 -0.00199538004
      0.00243257848 -0.00199397933 -0.0138465306 -0.0270982962
      -0.0194517709 0.0136187933 -0.0126560098 -0.0112878252
      -0.00282697869 -0.00698031392 0.0366856791 0.0183139294
      -0.0202454366 -0.0196632706 -0.0156719945 -0.00592346443
      -0.00217835326 0.00236866926 0.0138050644 0.0174128544
      -0.0168258455 -0.0353487544 -0.0123897437 0.00215158262
      0.00278822798 -0.00650403043 -0.00209015771 0.0102766305
      -0.0187625512 -0.0307320096 -0.0081886854 0.00609205989
      0.0192639213 0.00751750171 -0.00768759847 -0.00723379664
      -0.0185750816 -0.0293653701 -0.0343686603 0.00602531573
      0.022360621 0.0398618095 0.0234117061 0.00237166323
      -0.000646143395 -0.0120717036 -0.00768498005 -0.0325490274
      -0.03294928 -0.0021722333 0.0142419962 0.0158032645 -0.0029402622
      -0.00459543662 0.00166798127 -0.0220226161 -0.0300621334
      -0.0197950341 0.00773162628 0.0421514101 0.0299322475
      0.00989672635 0.00153377955 0.00754169701 -0.0265566781
      -0.0497630723 -0.000573341909 0.00730103813 0.0175789129
      0.00823011249 0.005056703 0.0117339389 -0.0128636062 -0.0108320136
      -0.0235284362 0.0133906184 0.0129204998 0.0113979662 0.0050973068
      0.00422829436 0.0170728043 -0.00109690346 -0.020075202
      -0.0365774594 -0.00819859188 0.00743573857 0.0204103123
      0.0133962436 0.00615116395 0.00347335148 0.014371261
      -0.00871933717 -0.0114467861 0.0204578005 0.0237441435
      0.0158965178 0.0028608744 -0.0017987052 0.0107019581 0.0340641066
      -0.0192503817 -0.0210270956 0.00546921138 0.00944684912
      0.00911789108 0.00388861494 0.000216253567 0.0150087466
      -0.00942574162 -0.0229327474 -0.0169981197 -0.00535114389
      -0.0024346076 0.0109314201 0.015261746 0.00919664931 0.0263022576
      -0.0151273953 -0.00959892292 -0.00264444738 0.0111467829
      0.0134754116 0.0122529175 0.000905110443 -0.00792284403
      0.0089514479 0.0300792828 -0.009107152 -0.00409176294
      -0.00442335848 -0.00511597237 0.00869737286 0.0109745366
      0.0133876521 0.0264864005 0.0218749717 -0.0377151817 -0.0148777654
      0.00703507056 0.00869924482 0.0169332121 0.0113928933
      0.00853806082 0.0158398338 -0.0112442989 -0.0377442129
      6.41172737e-05 0.012731255 0.00773531245 0.0173403565 0.0153315915
      0.0145208929 0.00998009462 -0.0123567367 -0.0241552386
      -0.00867102295 0.00764222443 0.00587135786 0.00632743491
      0.00957241468 0.0204473976 0.0198681988 0.00952277426
      -0.0162389316 0.00715806568 0.0201286394 0.0134356869 0.0145341242
      0.0108055249 0.0075574927 0.0031693154 -0.0150737036 -0.027148515
      0.0142048234 0.0145724379 0.0200366676 0.00997147989 0.0105967205
      -0.0022072955 -0.00355175836 -0.0189247392 -0.0126854917
      0.019016074 0.018929271 0.0312566757 0.0251590721 0.00915507413
      -0.0021446282 -0.00664192904 -0.0153471697 -0.0150709227
      0.0159255657 0.0180596486 0.0101081831 0.0130527224 0.00348865543
      -0.0108543914 -0.00833964162 -0.0180670638 -0.00178806367
      0.0144952815 0.0186148286 0.0207760204 0.0217308346 -0.00492730923
      -0.0120673012 -0.0225622058 -0.01449602 -0.0220973976
      0.00371014094 0.00940676313 0.0161319543 0.00854703877
      0.0122770611 0.0012179371 -0.00227450021 -0.00564688584
      -0.0064385226 0.0102898385 0.00964250695 0.0080484245
      0.00651319465 0.00837488566 -0.0107682403 -0.00258876267
      -0.00295526441 -0.00668169977 0.0103166681 0.0142374439
      0.0060164351 0.000250517391 -0.00238121999 -0.00935019925
      -0.0227909237 -0.0125547489 0.00683502154 0.0185705442
      0.0149641037 0.012425499 0.00643070927 -0.0066826921 -0.0239727832
      -0.017729247 -0.00832552183 -0.0107541643 0.00573743228
      -0.00607620273 -0.00290903752 0.0127848722 0.0130078653
      -0.0123199821 -0.0114968354 -0.00431769341 -0.00575744361
      -0.00585064385 -0.011206503 -0.00733966567 0.0153596466
      0.0113816801 0.00121778564 -0.00366605213 -0.00511917006
      0.0116737569 0.012966956 0.00147907773 0.00916613825
      -0.00227739499 -0.00657110661 -0.0275798403 -0.0356787145
      0.00126385037 0.0154584218 -0.0187826697 -0.0194317121
      -0.012181256 0.00192900212 -0.000194796157 -0.00541717513
      -0.0124387881 0.0131249642 -0.0185769163 -0.00518729817
      -0.00454628328 0.00771780079 0.0173567571 0.014802251
      0.00806884188 -0.0140568428 -0.0348018296 -0.00227851095
      0.0117764259 0.0120735085 0.00842426158 0.0151726082 0.0148912575
      0.0102528268 -0.0208575334 -0.032287851 0.0137971649 -0.0282483287
      -0.0157618187 0.00657935254 0.0099390354 0.00361315254
      -0.0122943707 -0.0104557807 0.00738330744 0.0139234345
      -0.0147485239 0.00176822511 0.0173732527 0.0197578091
      0.00818441436 -0.0140158478 -0.0114342449 -0.0151340729
      -0.00402464718 0.00759677356 0.00467248121 0.011356323
      0.0219563171 0.0106207924 0.0101512978 -0.00852207374
      -0.0266680513 -0.0241880193 0.00613360433 0.00937695988
      0.0282511357 0.0281661749 0.01336776 0.00920137856 -0.00742543209
      -0.0321007855 -0.00234690472 -0.00670293951 0.00433644978
      0.0190888606 0.0227009729 0.000691084482 -0.0109809376
      -0.00922311191 -0.0233336613 -0.0267795436 -0.0163041279
      -0.00542638544 0.0128383022 0.0181024391 0.0118459659 0.0056989342
      -0.0104451468 -0.0455907211 -0.0239224602 -0.00324203866
      0.00353688584 0.0312754959 0.0392492749 0.0195235424 0.00932354946
      -0.00405990146 -0.023657769 -0.0279073939 -0.0166521668
      -0.00551316608 0.0249830708 0.0387673452 0.0271024704
      0.00431628944 -0.0144123556 -0.027063163 -0.0273847133
      -0.0160061251 -0.00578312064 0.0226483624 0.0296885129
      0.0194052774 0.00684151566 -0.0172458496 -0.0306751169
      -0.0390551053 -0.0435377359 -0.0177007522 0.00330664776
      0.0241323113 0.0160893817 -0.0033135952 -0.0155416261
      -0.0367298238 -0.00438503781 -0.000313558703 -0.00180144398
      0.013967393 0.0134792821 0.0231754277 0.00531503325 -0.0123679871
      -0.00943787675 0.0052201245 0.00695256842 0.00509598665
      0.0101013305 0.00656625023 0.0110228565 0.00658430066 0.0017192862
      -0.0036514455 -0.0323869176 -0.0250340402 -0.00643672282
      0.00470606191 0.00535681052 0.00255573099 -0.0098541202
      -0.00656782882 -0.0279306713 -0.000837821688 0.0100524658
      0.0205195844 0.0128436126 -0.00183079427 -0.0135856196
      -0.0124628972 -0.0101977056 -0.0140956268 0.00561352633
      0.00745803583 0.0110366931 -0.00428011874 -0.00728671672
      0.0123749627 0.00891320221 0.0064141308 -0.00454039313
      0.00848041382 -0.00445852801 0.00209127157 -0.0224799421
      -0.0249243323 0.00096763653 0.0098413974 0.0113866385
      -0.00248399633 0.0080383094 0.0166568831 0.0302765686
      -0.00164989301 -0.0207914468 -0.000163712772 -0.000545244664
      0.000167092614 -0.0011818416 0.0139455143 0.0130063659
      0.0151368221 -0.0209064949 -0.0308135077 0.00440153759
      0.0162292402 0.00443653157 0.000293556746 0.0159450322
      0.000691242632 0.00551763782 -0.00926814601 0.000762602314
      0.0152941346 0.0140477251 0.00794650521 -0.00126685435
      -0.0030033954 0.00642933231 0.00581920473 -0.00217028381
      -0.0292247329 -0.0134200947 -0.00366313127 -0.00246030209
      -0.0164291356 0.0210383888 0.00405487558 0.00761036109
      -0.00769438781 -0.00186925218 0.0282902457 0.0238330066
      0.0125090955 0.0187857561 0.014964967 0.00794376619 0.00368364993
      -0.0169713479 -0.0372841209 0.00822132733 0.00476704305
      0.00244020764 0.0186866354 -0.00717559643 -0.00502438936
      0.00477003492 0.00293752667 -0.00282151438 0.00281124958
      0.0162639786 7.68202299e-05 -0.0251105148 -0.0256059021
      -0.0200778618 -0.000774075161 -0.0110560367 -0.00392824598
      0.000302192813 0.0198023058 -0.00192313665 -0.0274177361
      0.00872578658 0.00775650283 0.0169766359 0.00811956357
      -0.0108768074 0.00867598504 0.0139815873 0.00758292153
      0.00748313824 0.00552589307 0.000179723429 0.0178299416
      0.011928861 -0.00926942378 0.00326138944 -0.00580585189
      0.00995185878 -0.00353065529 0.0251387302 -0.00253320625
      -0.0246253014 -0.0421189591 -0.0127595803 0.00196632952
      0.00515637547 -0.00164091121 0.00819400139 0.0142620904
      -0.0152333518 -0.0406161807 -0.0172502548 -0.00099243375
      0.0122769568 0.00170535396 -0.00720679108 -0.00378006487
      0.0304718465 0.00303512369 -0.00938295573 -0.0295989756
      -0.0106906937 -0.00951422099 -0.0023891211 0.00178436399
      0.0241488144 0.00290301326 -0.0160535332 -0.0239449348
      -0.0121028265 0.00679896213 -0.00254706549 0.00683283806
      -0.00132813875 0.0026205848 -0.00397311011 -0.0219589993
      -0.0412420258 -0.0151690654 0.0175819807 0.0312420558
      0.00384087907 0.00121016393 -0.00610587606 -0.0115175722
      -0.0260208976 -0.0213078354 -0.0119837122 0.0337670036 0.035274446
      0.0151364943 0.0102777435 0.00630052714 -0.0131438216 -0.01638541
      -0.0252272375 -0.00914312154 0.00853060838 0.022440359 0.010617041
      0.00218141009 -0.00389029458 -0.0146911843 -0.0204203408
      -0.00904539973 -0.000507229415 0.0089790253 0.0284704641
      0.0106795309 0.00613999367 0.00356515148 -0.01330275 -0.0225670207
      -0.00150088069 0.00946860854 0.026818702 0.0194516834 0.014021405
      0.00638904935 0.0187913664 -0.0181131177 -0.0151588051
      0.0122467382 0.0255170483 0.0161591414 0.0110383881 0.0104569802
      0.0118434923 0.0264728032 -0.0345329419 -0.0321303345
      0.00341503741 0.0126815643 0.0171702281 0.0198407862 0.00362257054
      -0.00274387677 -0.0144545007 -0.0284477584 -0.0166919734
      0.00950209796 0.0212198813 0.0184997451 0.0175723918 0.00675411383
      -0.00234249653 -0.0113627799 -0.0151942587 0.00463601202
      0.0171895642 0.0178141966 0.0120579172 0.00786884222 0.00540293148
      0.0121412976 0.0240621697 -0.0243992731 0.00982983317 0.0168578979
      0.020414887 0.00667394092 0.00513697788 0.0123470835 0.0226466358
      0.0236017462 -0.0431946293 -0.00167636736 0.0259539541
      0.0235580541 0.0189873278 0.0126113473 -0.00121898716
      -0.00108006154 -0.0174595248 -0.0419500209 0.00110652042
      0.0322369672 0.0363556705 0.0181746837 -0.00541147264
      -0.00134863949 0.0155289751 -0.0231934246 -0.0203304943
      0.0132836672 0.0141274119 0.0091475714 0.00321152783 0.00235863659
      0.0166828055 0.0219899099 0.0115767159 -0.0237490777 0.0163742453
      0.0168799851 0.00370802544 0.0152407736 0.0111856386 0.00854175817
      0.0179261006 -0.00235611456 -0.0353778973 0.00552524161
      0.0245697293 0.0308234468 0.0155594628 -0.00488601672 0.0126070492
      0.0229985397 -0.0145892855 -0.0470010936 -0.00121890043
      0.0282039009 0.0215057619 0.0104425093 0.00802354235 0.0179416612
      0.0254827626 -0.0219282731 -0.0132605564 0.0136042321 0.0153108798
      0.00582314003 0.015609093 0.00274145138 -0.00443439279
      0.0068802936 0.00369329914 -0.0187338423 0.00838338118
      0.00984205492 0.00462370645 0.0107980752 -0.0113965683
      -0.00829316489 -0.00248329341 0.00111815613 -0.0320247933
      0.00942274183 0.0234159101 0.00749604357 0.00950648729
      0.00673794746 0.000105565356 0.0124059012 -0.00479960954
      -0.0124382656 0.00191912078 0.0169278756 -0.00349529856
      -0.00476801209 -0.00719118025 -0.0120525155 0.00520162843
      -0.000243861257 -0.00607854687 0.0107187666 0.0026214493
      -0.00244333455 -0.0108451257 -0.0188506264 -0.00745422672
      -0.00337472954 0.00690106722 0.00571159273 0.0177788343
      0.0141638294 0.000753683795 -0.00112614629 -0.0275699794
      -0.021400718 0.000720377895 0.0145647265 0.00242107594
      0.00731108245 0.00285928929 -0.0173718613 -0.0208074339
      -0.0215830915 -0.02079162 0.00172026455 0.0148117561 0.022134088
      0.0170965064 0.00485911267 -0.0048057735 -0.0203209016
      -0.0297436528 -0.0210895818 0.0140975975 0.0321673229
      0.00388663681 0.00765397772 0.00696891546 -0.00193115696
      -0.0152137047 -0.0278866906 -0.0247973204 -0.0107902121
      0.0192297157 0.00716695841 -0.0203090478 -0.0214699861
      -0.0188478231 -0.0124778487 -0.0182994176 -0.00247310987
      0.0119331358 0.0225004032 0.024022866 0.00538352691
      -0.000429471111 -0.0195420384 -0.0348940007 -0.0395112634
      -0.0240401495 -0.000764066761 0.0261219125 0.030268563
      0.00217945036 -0.0131829111 -0.010245732 -0.00973264594
      -0.014689127 -0.000111966634 0.0185813084 0.030745402 0.0056073023
      -0.0321425535 -0.031137798 -0.0099622542 0.00231945119
      -0.00619183667 -0.00199041329 0.0145657742 0.019785136
      0.0013719952 -0.0447867662 -0.036505498 0.00214237254 0.0246135015
      0.00347358617 -0.00655042054 0.000691070221 0.0124141853
      0.0240875557 -0.0253220834 -0.0415047444 -0.0196283348
      0.00341744884 0.00858294684 -0.000414501963 0.020689616
      0.0335261151 0.0052998215 -0.0445721522 -0.0428214855
      -0.0267467033 0.00457925536 0.00841283984 -0.00474534184
      0.00730642071 0.0269648843 0.00578966504 -0.00928587466
      -0.00656075822 0.011987797 0.0201910939 -0.00253818464
      -0.0124133984 -0.00515294494 0.00169654947 -0.00852457155
      -0.00110064517 0.00155749661 0.00814173277 0.0180532392
      0.0152139496 0.00430430099 -0.00220118975 -0.0151982084
      0.0064464095 -0.0218274556 -0.0240019709 -0.0208798479
      0.00902784243 -0.00147296104 -0.000871937431 -0.0052289851
      0.0113941152 0.00607276801 0.00313817221 0.00599538302
      0.00167539343 0.00765980501 0.0114411488 0.00412257574
      -0.0120372474 -0.00105450512 -0.00523060886 0.000819009671
      -0.013164972 0.00487238448 0.0181231014 0.011435641 -0.00453283032
      -0.0133699588 -0.0107872281 -0.0139699243 -0.0282768719
      -0.0172459874 -0.0135733243 0.0145667214 0.00936714746
      -0.0108852414 -0.00655272556 -0.0103919273 0.015616687
      0.0154492082 -0.00473563746 -0.0101667549 -0.00264585903
      0.0013619652 -0.0010874992 -0.00700770831 0.000916249643
      0.0122619681 -0.00346096233 -0.0185488053 -0.0102404105
      -0.00473010307 -0.00908528268 -0.0113838222 -0.00204038364
      0.00352619262 -0.0245886594 -0.0200001169 -0.00601657527
      0.00260266406 0.0170789491 0.00853708014 -0.00692764577
      -0.00804937165 -0.00612888625 -0.0144650238 -0.000849913864
      0.0177910868 0.00538472785 0.00852360483 -0.000462679076
      -0.00569202704 -0.00948185381 -0.00987708382 -0.00244130613
      -0.0247685909 -0.0196656231 -0.012501549 -0.0024499374
      0.00984430313 0.00590104517 0.00404630089 0.0101377955
      0.00253712153 -0.00506287441 0.0044307271 -0.00303162821
      0.00142679072 0.00883493014 0.012215565 0.00785760395 0.0160884541
      -0.00405984838 0.0110687567 0.030167859 -0.00170884398
      -0.00469970563 -0.00148799166 0.00238188333 -0.0052288319
      -0.010719127 0.00669194665 0.0241429191 0.0399522744
      -0.00617335876 -0.0108999321 0.0173388217 0.0131237814
      -0.00184991164 -0.0063823387 -0.000568860094 0.0128844222
      0.0186161809 -0.00179327873 0.00544292433 -0.00872349646
      0.00106610532 -0.000935459277 -0.00700572506 -0.00989233702
      0.0146852992 0.0208345875 -0.00290969177 -0.00788021088
      -0.00768758543 -0.0120794326 -0.0125641311 -0.0184760541
      0.00663922215 0.00554320216 0.0122363688 -0.00308263232
      0.00463922136 0.0329820365 0.0140967397 0.0043931664 0.00548966974
      0.00994245335 0.00734058674 0.00643976498 -0.00574805029
      -0.0339908414 0.0154282609 0.0116852382 -0.00460358011
      0.00699078944 -0.0163569488 -0.00612421986 0.0117774038
      0.00526887784 0.00850363541 0.0160376448 -0.00673206942
      -0.0182390623 -0.0196161568 -0.0176282283 -0.00447427342
      0.00796785764 0.000708195905 -0.00704187108 0.0164037552
      0.0216085147 -0.00462906854 -0.0129532283 0.0150179183
      0.00963234715 0.0175147504 0.00282055372 -0.0150110228
      0.00308215758 0.00510133989 -0.00481030345 0.00214689854
      0.016602857 0.0124759553 0.0150343217 0.00204414944 -0.0122235147
      -0.0112138912 -0.018743543 0.00384028442 0.0126608806
      -0.00196945085 0.000189003957 0.00716367969 0.000172080021
      -0.00727754226 0.0114545105 0.0291986931 0.0119687542
      -0.00332710682 0.0201282762 0.0170239937 0.00200997153
      -0.0128200473 -0.0210745484 -0.0175658632 0.00266078371
      0.00788165908 0.00840480905 0.0275298506 -0.00258561689
      -0.0154038258 -0.018475011 -0.0078825159 -0.0218922049
      -0.0108375661 -0.00173769938 0.0219325256 0.0117090913
      -0.0120676029 -0.0318139009 -0.0166838337 0.000546861847
      -0.0171340704 0.00048027825 -0.000737735187 0.0136785014
      0.0196211375 -0.00809810311 -0.0353444926 -0.0107951891
      -0.0090523921 0.00510634342 0.00522189634 0.00199999288
      0.0149324909 0.0258249808 -0.00874971505 -0.0324705504
      -0.0219901055 -0.00269945711 -0.00113432959 0.0164804421
      0.0189207196 0.0241551623 0.00429374771 -0.014406248 -0.0286792889
      -0.00970108807 -0.00296949525 -0.000464147568 0.00752133643
      0.000358484453 0.0128098335 -0.0200258363 -0.0290096067
      -0.0056739687 0.00993707031 0.00332643394 -0.00584122678
      0.00256246561 -0.00404359726 1.32460345e-05 0.0185927954
      -0.011537957 -0.0257411879 -0.00190302893 -0.0166395102
      -0.0109416237 0.00495415507 0.0136346342 0.0191888828
      -0.0131122181 -0.0321356319 -0.00733145559 0.00983277056
      0.00329054333 -0.0124857733 -0.0100986054 0.00760557456
      -0.00489945104 -0.0326704197 -0.0246503428 0.00807395671
      0.0271530095 0.0209116116 0.013691647 -0.000136242437
      -0.00219259341 -0.0108318767 -0.0129903117 -0.0125473365
      0.00525449309 0.0144439945 0.0127643431 0.000205874821
      -0.00380252511 -0.00679092156 -0.00845085457 -0.0200807769
      -0.0223648939 -0.0109332437 0.021199692 0.0219773389 0.00181365758
      0.00760658411 0.010009801 -0.0057756356 -0.0202248301
      -0.0235235281 -0.0194600895 -0.00936743431 0.00646494702
      -0.00808561686 0.0041811117 0.0113859167 -0.0133399833
      -0.0101507083 -0.00231332611 0.0270650592 0.0239108 0.0181273594
      0.000919833139 -0.003214675 -0.00274251634 -0.00766069116
      -0.00840495992 0.00379077066 0.0278314352 0.0305783637 0.013364926
      0.00098515721 0.000575797108 0.00709800981 -0.0141599039
      -0.00907390844 -0.0161860529 0.0102758007 0.00933093578
      0.013956802 -0.011354683 0.00821600016 0.0158052016 -0.0169892088
      -0.00793262944 0.00476752548 0.022769969 0.0119537441
      0.00769572984 -0.00334936334 0.00555231096 0.0153434314
      -0.015502857 -0.015313047 0.0109006707 0.0177554842 0.0268331412
      0.00543189468 -0.0101629375 0.00908470899 0.0173797403
      4.90614038e-05 -0.0143601885 0.0119809993 0.0197137408
      0.0276806355 0.0109930243 -0.00297577004 0.0182420146 0.0176817775
      -0.00614640256 -0.012569841 0.0125007033 0.00882168673
      0.00776136015 0.00842530746 -0.00439264579 0.0202658549
      0.0202736519 -0.0156665035 -0.0179087389 0.00870420411
      0.00416071434 0.00675148936 0.0117329443 -0.000791158644
      0.0216029678 0.0113047259 -0.0200765189 -0.0110120261
      0.00222767936 0.0136555582 0.0123632038 0.00443945965
      -0.00305368076 -0.00240537268 0.00383063406 -0.0103318291
      0.000108283442 0.00822171755 0.0205352493 0.000637240824
      -0.0144584738 -0.0169579759 -0.0196467862 6.37988123e-05
      0.00269184774 -0.00293652434 0.00717265066 0.00547410082
      -0.000114346469 -0.00306416862 -0.0260143094 0.00197786652
      -0.00565803703 -0.0159708168 0.00932710432 0.0223753452
      0.0265535321 0.00614633923 -0.0136660477 -0.0320059732
      -0.00126010354 -0.00327754393 0.0094429478 0.0174063426
      0.00818894804 0.0128092328 -0.0114848502 -0.0286138728
      -0.0380937681 -0.0247193985 -0.0047628833 0.0148642566
      0.0276179854 0.0152013777 0.00604401994 -0.00828006957
      -0.0424780883 -0.0493872017 -0.0109287873 0.00816492364
      0.0297461953 0.0147845251 0.0226083677 0.0306939911 0.00730991503
      -0.0240293518 -0.0577786416 -0.00924829952 -0.00380681199
      0.00939475 0.0321360305 0.026179472 0.0269813966 0.0164646041
      -0.0305307023 -0.046785973 -0.0046893442 0.0221933778 0.0292961039
      0.0230815876 -0.000969327521 -0.00126044825 -0.0135524599
      -0.0375665426 -0.0437186249 -0.0154842343 0.00309413974
      0.0266001932 0.0277878884 -0.0042083594 -0.00393401599
      -0.00955409277 -0.00330784102 -0.0180811994 -0.0101433881
      0.00042011746 0.0251370408 0.0185467713 0.00661452627 0.0144617753
      0.0039896192 -0.0186954215 -0.0369336493 -0.0023882282 0.019228952
      0.0234649461 0.00911540072 -0.0151812322 0.0128986109 0.012604855
      -0.00739061553 -0.0238307714 -0.00548291067 0.0215788893
      0.0202486794 0.016553767 -0.0234626532 -0.0279454887
      -0.00494826725 0.0319772027 0.00595120899 -0.0143309915
      -0.00141361426 0.0173142552 0.0149599556 -0.0353612639
      -0.0333871283 -0.0164052024 0.00533676799 -0.000199087241
      -0.0114433877 -0.00454217289 0.0184000116 0.000406993669
      -0.0285455268 -0.0121421563 0.00996936765 0.0243145823
      0.000332335185 -0.00809968822 0.00491468282 0.00822523888
      -0.00396324042 -0.0320890434 -0.0229715537 -0.0105959745
      0.0156523399 0.00477402937 0.00801732671 0.00604943186
      0.0069404603 0.0185950659 -0.0165970121 -0.0129315443
      -0.0123700276 0.0028386449 -0.0102866543 -2.38612502e-05
      -0.00608723843 0.0164530147 0.0154834623 0.000644350308
      0.0150554581 -0.00537039619 0.0112246238 -0.00231456873
      -0.0015258427 -0.00795021839 0.00835011061 0.00795515068
      -0.0180387292 -0.00999511871 -0.00632337201 -0.00359468861
      -0.0124075375 0.0114158494 0.0049239411 0.00822800398 0.002181852
      -0.0084019918 -0.00759341754 0.00331327366 0.0192518048
      -0.0180955827 0.00171723403 -0.0107665975 0.00499187037
      0.0108300261 -0.00580265885 -0.00614370685 -0.0113624847
      -0.000736618182 -0.00883276295 -0.00697306031 -0.0102656959
      0.00446164701 0.0219522566 0.00878336746 -0.00828256086
      -0.0251265187 -0.0081327036 -0.0155566828 -0.00463584717
      -0.00572173717 0.0152157098 0.000134331596 -0.00849970616
      -0.00698576635 0.00462130643 0.0110386861 -0.0276005603
      -0.0121794678 -0.0218174029 -0.000652838033 0.00446802191
      0.00603571488 -0.00404356094 -0.0112957247 -0.00387213519
      -0.0257504657 -0.00745263416 -0.0210648905 0.00687284442
      0.013177406 -0.0213962588 -0.0235275999 -0.0268701315
      -0.0151733859 -0.0059355367 0.0123907225 -0.00178437703
      0.014577074 0.0195915848 -0.0065797898 -0.0142441709 -0.0244189389
      -0.00631027436 0.00230952865 0.0178535916 0.0133828577
      0.0194338448 0.00794333126 0.000399193319 -0.0105284704
      -0.0292626843 -0.0111930445 -0.00774207944 0.00697600003
      -0.00541061582 0.0106827319 0.0103998892 0.00285855099
      0.00166647439 -0.0194883235 0.0024159085 0.00158558472
      0.0215440113 0.0114015788 0.00862406567 0.0102787465 0.0105835451
      0.00922279339 -0.00599389849 0.000759082148 -0.00224615145
      0.0182406064 0.01751169 0.00909052137 0.000151631204 0.0103852553
      0.0143012293 -0.00867097639 -0.0143339178 0.0109804636
      0.00719658425 0.00463101082 0.00238729897 0.00533360848
      -0.0100076171 0.000794841384 -0.0165299587 -0.00205189618
      0.00174300058 0.0284106787 0.0241314787 0.0100760572
      0.000863046153 -0.0141090089 0.00484438613 -0.00962738693
      -0.0153150801 0.0124657536 0.0289922711 0.0207090024 0.0104066115
      -0.00484440429 -0.00132795738 0.0153634259 0.00291483058
      0.00116984663 0.0200278126 -0.00262905215 -0.00530286413
      -0.00328006246 -0.0163676664 0.0094000902 0.0127978222
      -0.00859105028 -0.0129631422 0.0210314225 0.0212575495
      0.00987647567 -0.00951143727 0.00529128686 0.00305230916
      0.0137084927 -0.00380981015 -0.0102026239 0.00656377198
      0.00880473107 0.00909887999 0.00808840152 0.000337807462
      0.0189125352 0.00895259064 -0.01851069 -0.030463459 0.0048661693
      0.0156855769 0.0103302067 -0.00168133387 -0.00247078785
      0.00142482005 -0.0102915727 -0.0121796941 -0.00539723551
      0.0158153009 0.0303445756 0.0192594379 -0.00318806712
      0.00864964444 0.000154559064 -0.00730289007 -0.0269580036
      -0.0156841911 -0.00430406909 0.0196827799 0.0250144042
      0.0189438295 -0.00264703948 0.00518897595 -0.00939740334
      -0.0153344991 0.000161893491 0.0128154093 0.0172834154 0.011059029
      -0.000547183619 0.0053895181 -0.0127078667 -0.0172355752
      -0.0221449453 0.00391283818 0.0166807435 0.0183677673 0.0189788118
      0.0197088271 0.0145410001 0.00890099443 -0.0219981279
      -0.0278797559 -0.0335222557 -0.00119381153 0.0136885457
      0.00689195842 0.0131741222 0.0215565637 0.0014183094 -0.0244237017
      -0.0354817212 -0.0169508792 0.00814971607 0.0330090895
      0.0268363282 0.0281738862 0.0252938401 0.0143230353 0.000743566372
      -0.034227591 -0.0353820994 -0.0280526038 0.00956926867
      0.0197246894 0.0246540587 0.0231733546 0.012292929 0.00112811034
      -0.0191425551 -0.0231209733 -0.00116237218 0.0325256884
      0.0305211116 0.0272919741 0.0107518006 -0.00938885845
      -0.0158028472 0.00171199464 -0.0109631475 -0.0218692981
      0.00781304576 0.0143196741 0.0197779853 -0.0176794156
      -0.0355440602 -0.0238741897 0.00677833939 0.00403702538
      -0.0292489547 -0.0236100648 0.0070121251 0.00780688971
      0.00946988445 -0.00676686317 0.0084877694 0.0136556765
      -0.00575544452 -0.0058822548 0.013841792 0.0176484007 0.021931557
      -0.00994254742 -0.0266140979 0.00457754079 0.00733756414
      0.00492350478 -0.00564889284 -0.0030557001 0.0122045614
      0.0127828745 -0.0178211778 -0.0279397499 -0.0319388434
      0.00379327405 0.0326571725 0.00594410067 0.0153645547 0.0157196708
      0.0129682077 -0.0241789799 -0.0269076768 -0.0225753356
      -0.00736078201 0.00271819369 -0.00347784627 0.012286542
      0.0160793848 -0.0116655752 -0.0166650489 -0.0170965958
      -0.00726755615 0.00620701909 0.029267611 0.0276082139 0.0214150101
      0.0113613755 0.00544072129 -0.0269357972 -0.00695413444
      -0.00106421474 0.00654328475 0.018825205 0.0135081895 0.0184038058
      0.0107674841 -0.0148934564 -0.0298648588 -0.0252787732
      -0.00146310753 0.00306230388 0.00324012036 -0.00467058783
      0.0112220626 0.0170866381 -0.0149088334 -0.0289351121
      -0.0126904352 0.0162632372 0.00765852956 0.00672200695
      -0.00568630546 0.0101422248 0.0187437069 -0.0206294172
      -0.0255277436 0.00421556504 0.00931848679 0.00811021868
      0.012821408 0.0108977119 0.0165097974 0.0185939688 -0.0146434577
      -0.0073929131 0.0149596808 0.0316153392 0.0197193231 0.0149887297
      0.0136436541 0.0221563317 0.0283574294 -0.012166433 -0.0303941928
      0.000322069973 0.0126888622 0.000116939787 0.00903848
      0.00129462231 0.0228945911 0.0133715523 -0.0209685285
      -0.0143935606 -0.00177193899 0.0050696251 -0.00332479225
      0.0159680098 -0.00387696968 0.0123966308 -0.00157527532
      -0.0360831395 -0.0121164704 0.0208790451 0.0284033138 0.0157762673
      0.0176042113 0.0055548083 0.0173551701 0.00386656797 -0.0310452506
      -0.00524323899 0.0189731792 0.0206015389 0.00598881766
      0.0187742729 -0.00364078605 0.00559162302 -0.00626036106
      -0.0268175378 -0.00144246081 -0.00305971433 -0.00205745501
      -0.0161084272 -0.0108332504 -0.0290421937 -0.00600433862
      -0.00766178174 -0.0139081506 0.0128515903 0.0108519197
      0.0200743135 -0.00064220553 -0.0082837306 -0.0297807511
      0.0123056592 -0.000198865368 0.00498593552 -0.00173370226
      0.00627650972 -0.000619006576 -0.00832009129 -0.00379194831
      -0.0255067386 -0.00270548696 -0.00142618199 -0.0111609334
      0.0131070558 0.00930285081 0.0153243504 -0.000634795171
      0.00329324277 -0.0135935014 0.0164943747 0.00732828211
      0.00601374358 0.000782816263 0.0151819931 0.0252136551
      0.00776608754 -0.00447354186 -0.0421319641 -0.00203740993
      -0.000134553484 -0.00389275257 0.015039078 0.0213245489
      0.0284298006 0.0104584368 -0.0232903827 -0.0414645821
      -0.0107290633 0.0150608672 0.0123526007 0.00142544403
      -0.0118535887 0.00611045118 0.00828272104 0.0106712021
      -0.00621485105 0.0103313923 0.00226800074 0.00505111273
      0.0120011363 0.0144763105 0.0292194895 -0.00840772316
      -0.0256452486 -0.0288129784 0.0116647324 0.00910094101
      0.0100745838 0.0037913695 0.010037668 0.0173312072 0.0105260182
      -0.0161184371 -0.0372514427 -0.00325513585 0.0151756229
      0.00681824237 -0.0152723622 -0.0131943021 -0.00227041426
      0.0108497897 -0.00388510269 -0.0233618189 -0.000626179157
      0.0091549959 -0.00670123938 -0.00128685532 0.00844369363
      0.0123942336 0.000410812732 -0.0248724092 -0.0328772403
      0.00953591149 0.00824333262 -0.000393035501 -0.00929093268
      -0.00273788837 0.00562418764 0.00320749404 -0.0129975453
      -0.0270477049 0.00992506091 0.0147978766 0.00439793291
      -0.0169960037 -0.0206383765 -0.0120944828 0.0150291985
      0.0151874777 0.0050109867 0.00365669699 0.00300635793
      -0.00892639533 -0.0116068665 -0.014499885 -0.0131911309
      -0.00792492554 0.012335672 0.00416175928 0.0204171482
      0.00415917905 -0.014411537 -0.00512328045 -0.00317767751
      0.00176340609 0.00296860421 -0.00138374208 -0.00975149125
      0.00903305691 0.00819605496 -0.00321547384 -0.00497509306
      0.00334532303 0.00381569332 0.00062032335 -0.00586987333
      -0.00308790663 0.0140676172 -0.0001298149 -0.0149575099
      -0.000988674583 -0.014095705 -0.0175505131 -0.0110275671
      -0.000955964264 -0.00724536646 0.02224054 0.00699016079
      -0.00173753907 -0.00456663873 -0.0187563933 -0.0180151258
      -0.00295389351 0.0105267558 -0.014549409 -0.00382905127
      -0.00979416817 -0.00103362021 -0.00915739313 -0.00661576027
      -0.0104314564 -0.00805955753 -0.00702889357 0.0026497785
      0.0293978825 0.00638112333 -0.00655565038 -0.0063281958
      -0.0269497577 -0.0154255154 0.0075791995 0.0017384286
      -0.00157279242 0.0223432686 -0.00221042265 -0.0034798733
      0.00106416398 -0.0104418667 0.00361129967 0.0141693149 0.016355183
      -0.0292446408 -0.0184173118 -0.011317824 0.000840991503
      -0.00562194036 -0.00374415284 0.00608833646 0.00657558115
      0.00335386 -0.0362673737 -0.00822329521 -0.00709881168
      -0.00513450382 0.00558249047 -0.0123998662 0.0032420666
      0.0198703874 0.0198805816 -0.0264414661 -0.00756226853
      -0.00140491093 -0.00306095905 0.000516633096 -0.00358930952
      0.00055444485 0.0160586722 -0.000731950742 -0.0460947528
      -0.0211554505 0.000713798101 -0.00262245885 -0.00412495434
      0.00301953638 0.00368458894 -0.0159935094 -0.00721269334
      -0.0204810724 0.00182177743 -0.00268795644 -0.00513288844
      0.00395040493 0.000657634053 -0.00391439814 -0.00915668812
      0.00882939715 0.00513230963 0.00624289783 0.0092426464
      0.00133194996 -0.00626224792 0.00112650252 0.00687603327
      -0.00571108842 -0.00901039597 -0.0430466495 -0.0248744003
      -0.0132155223 -0.0113923931 -0.000815380365 -0.000196829817
      -0.00589498505 -0.010509151 0.0111294901 -0.00913163461
      -0.0087302709 -0.00325455447 -0.00142817362 0.00134298264
      -0.0130470945 -0.0124968207 -0.0158856176 0.00978355482
      0.00645848783 0.018855378 0.0169819258 -0.00157347263
      0.00153485907 -0.0142258415 0.00311184325 0.0011911036
      -0.00134095037 -0.000779441674 0.0219124574 0.0146570317
      -0.00129117817 -2.8120814e-05 -0.00650351029 -0.0111877825
      -0.0135644125 0.0138911419 0.0152991563 0.0184748806 0.00724878768
      -0.00714971125 0.00778955827 -0.000971651694 0.0134798819
      -0.00116796629 0.00722819706 -0.00770165864 0.0122221885
      -0.0027229914 -0.00872908719 0.000656663324 0.000299051346
      0.0122927185 0.00404188782 -0.00242153252 -0.00401601056
      0.0047034598 0.00449032476 -0.00200826302 -0.000164847705
      0.0119390972 0.00660959911 -0.00725614792 -0.0171952154
      0.00411938643 0.000998934149 0.00574262068 -0.00240038149
      -0.0127155557 -0.00293642166 0.00709287729 -0.00176395243
      0.00528207934 -0.0104681347 -0.00526178721 -0.0157335792
      -0.0196823422 -0.0123725161 0.00127150957 0.00637202431
      -0.0168292969 -0.0098853875 0.0101832328 -0.00414094562
      -0.000469537976 -0.00990096852 -0.00831857417 0.00471183192
      -0.00844551902 -0.0187111031 0.00486956164 0.00965937693
      -0.000433276087 0.00794781931 0.00150134531 -0.00073240028
      -0.000410828507 -0.00746983057 -0.0198736191 0.0153069077
      0.0106294211 0.00237847748 0.00416742824 0.00173649017
      -0.000770403713 -0.000564145565 -0.000653593685 -0.024427006
      7.13694753e-05 0.00786378328 -0.0032896467 0.0188062768
      0.0104568349 0.00621980708 0.0113910772 -0.00758983847
      -0.0359588191 0.000182367003 0.00905581284 -0.00329331844
      0.00927872304 0.0129138492 0.0193428975 0.0107925981 0.0103216888
      -0.0210661124 -0.0353604704 -0.0481297486 -0.00850847177
      0.00881871209 0.0116943028 0.0101648672 0.00455051195 0.0132330228
      0.00575253088 -0.0208290294 -0.00453113299 0.00591677241
      0.0164501779 0.0166129712 0.0119098136 0.00846766494 0.0243241899
      0.00490574818 -0.0148330433 -0.0383152179 -0.00940804649
      -0.00181525142 0.00502411835 0.00278625241 0.00349490065
      0.00203384855 0.00935469102 -0.00783446711 -0.0122429105
      -0.00622985 -0.00424199412 0.013116301 -0.00112633267
      -0.0161723811 -0.00757055217 0.00952172745 0.00238326262
      0.00249509746 0.0142197171 0.0188003425 0.0231332332
      -0.00838779286 -0.0315336287 -0.00926484633 -0.00309246103
      0.00512653729 0.00305278297 0.00294265081 0.0262310877
      0.0216079503 -0.00664258981 -0.0186913293 -0.0153296515
      0.0044773221 0.000558022992 0.000173088585 0.00973930024
      0.0119851362 0.0192835461 -0.00232676393 -0.0219600499
      -0.0197808221 -0.0112136481 0.00582661247 0.00719303545
      0.0165336076 0.0327934138 0.0273531694 -0.0270514861 -0.0233197697
      -0.0127643673 -0.00790323876 0.00635020435 0.0144143654
      0.00635934807 0.00856474787 -0.00588605274 -0.0301712807
      0.00159998331 0.00174021709 0.00128841039 0.0155275967
      0.00892797112 0.00683417032 -0.00328576774 -0.0245802533
      -0.00341132306 -0.0030555157 -0.0150782363 -0.00616327766
      0.00649481732 0.00674140966 0.0189288706 0.0329123698 0.0203252081
      -0.0088028973 0.0125057753 0.00863542501 0.00455934228
      0.0238128863 0.00178018666 -0.00987169053 0.00328180962
      -0.00338356453 -0.0353628024 0.0106087606 0.0173174292
      0.00510111731 0.0126853287 0.0165799502 0.0132234422
      0.000384100684 -0.0332822837 -0.0160691626 0.0124648483
      0.0299005378 0.0101098213 0.0121916234 0.0136493417 0.0168626998
      0.0124662099 -0.0289465711 -0.0087498948 0.0155217741 0.0220182091
      0.0142122628 0.0224639978 0.0153716663 0.00129012624
      0.000871772994 -0.0159400962 -0.0219629426 0.0104571693
      0.0166016333 -0.00141525234 0.00627251295 0.0129574575
      0.0124050612 -0.00413968833 -0.0171310063 -0.0188601203
      0.0173419397 0.0256496053 0.0016393644 0.0167909507 0.00184432731
      0.00175818941 -0.00822945684 -0.0372372493 -0.0149953412
      0.0175493956 0.0158834793 0.00615718821 0.020144755 -0.00324019464
      -0.00640610512 -0.0140396617 -0.0440832116 -0.0167337731
      0.00362106902 0.00402329769 -0.00499188574 0.021504458
      0.00702347187 0.00553981541 -0.00162011292 -0.0156824514
      -0.0161443073 0.00928143784 0.00960809179 -0.0047123055
      0.0104368143 -0.00463904394 -0.00632721139 -0.00472538825
      -0.0196960438 -0.0166011471 0.00756352209 0.0020693813
      -9.56653312e-05 0.0105099939 -0.0115338564 -0.00281498674
      -0.0115319937 -0.0270711519 -0.00778454402 0.00656277593
      0.00697612017 -0.00145314343 0.00631782645 -0.00162141386
      0.0142631438 0.00379450712 -0.000928566849 -0.0215054285
      0.00618861429 0.0190856773 0.00258142152 0.00310133188
      -0.0169981159 -0.0126135712 -0.0217566025 -0.0325513445
      -0.0196767896 0.00292514311 0.0207047109 0.00460858829
      0.00579326879 -0.00767901866 -0.00253720814 -0.0105283456
      -0.0197486039 -0.00845159031 -0.0084513491 -0.00363994366
      -0.0148355272 -0.00361370225 0.000445963233 0.00707784062
      -0.00414483203 -0.00374455214 0.00599709945 0.0107163489
      0.0228421707 -0.0151943797 -0.0145538822 -0.0149670755
      0.0117505891 0.00971464254 0.0112610878 -0.0214702617
      -0.00795743521 -0.00247720722 0.00898205955 0.000560707587
      0.00352903595 0.000223643379 -0.00962882768 -0.0145531287
      0.00368501991 0.00378970802 0.0199221615 0.00561162131
      -0.000518211338 0.0157645624 0.0195633266 0.011770024
      0.00971012376 0.00138447201 0.00652927998 0.0104526896
      -0.00554267038 -0.018868139 -0.0286336616 0.000721554505
      0.010389938 0.00507345609 -0.00163108762 0.0167254228
      0.00572279748 0.000667174056 -0.012517713 -0.0303110331
      0.00493321568 0.0184117351 0.0101131955 0.00846249517
      0.00665339734 0.00947201438 0.00217042607 0.0011085975
      0.00267084502 0.0103521515 0.0133109177 0.010607969 0.00213317503
      -0.00317989523 0.00262156595 -0.00545502501 -0.00536643667
      -0.0305020232 -0.00121682871 0.0032313033 0.00412668707
      0.00594188226 0.00946908072 0.00539671117 0.0039645005
      0.00514467712 -0.0131819155 0.0101346923 0.0107178381
      0.00219880231 0.00976145454 0.0163276531 -3.24022985e-05
      -0.00249576359 -0.00329092424 -0.00643518753 0.00567352446
      -0.0183253661 -0.0141717037 0.0101107433 -0.00574526144
      -0.00687322672 -0.00199882244 0.0120813325 -0.0108930105
      0.00416220957 0.000192947584 0.00438032486 0.00961153768
      -0.00603853585 -0.0291983914 -0.0186107829 -0.000122520214
      0.00202052668 0.0042155413 -0.0158514865 -0.00604614429
      0.00198027957 0.00304945302 0.000288161362 -0.00937306415
      -0.0141889658 -0.000395868788 0.0141003914 -0.0105579132
      -0.00985533558 0.00382014457 -0.0123277176 -0.00264777848
      0.00147007406 0.00675192429 -0.00140664331 0.0212165974
      0.00150691695 -0.00328907021 0.00789763872 -0.00837830268
      -0.0203060936 -0.022088537 -0.00741544785 0.00325303688
      0.0037016673 -0.0137435133 -0.0112949228 0.00538449502
      -0.0107499817 -0.00508115068 -0.0171747413 0.00811961945
      -0.000343322288 0.00704869581 -0.000739199808 0.00304426369
      0.00999081321 -0.00832584593 -0.00259175827 0.0119307525
      0.0103450166 -0.0272995215 0.00155777414 0.0024728789
      -0.00297474978 0.0124276644 0.0139681213 0.0152369952 0.0152747426
      -0.0206372514 -0.0529398508 -0.0233423151 0.00248945598
      0.00271488982 0.0202825963 0.00522577204 -0.00646834541
      -0.00653504767 0.00960410666 -0.0232519042 0.00756671838
      0.00162882847 0.0126569085 0.0354775861 0.0188379381 0.0104244379
      0.00256086327 -0.0200092271 -0.0379198156 0.00172811479
      0.00660743192 0.0252171997 0.00936061796 0.0143239051 0.0188852791
      0.000452754059 -0.0253679752 -0.0534308255 -0.0184399337
      -0.00631623948 0.000474902597 0.00980869494 0.00346190645
      0.00269090058 -0.0217220597 -0.00240538502 -0.00560310483
      0.000493029598 -0.00527712796 0.00391649688 0.0330082588
      0.0225098021 0.0165337306 0.00288670743 -0.0237015337
      -0.0352928862 -0.00299182348 -0.00554870162 0.0180924684
      0.0178314578 0.0244162381 0.0142753394 -0.01200826 -0.00613367697
      -0.0165129602 -0.002346494 -0.0166035742 0.000383882725
      0.00424144696 0.000274883118 -0.00155239354 -0.00946889073
      0.0101537928 0.0100001674 0.0107187126 -0.000368820882
      -0.00912886392 0.00394988339 0.000497329456 0.00544799585
      -0.0111214072 0.0213302802 -0.00393510796 -0.00297649461
      -0.0194211397 -0.00933194067 0.0148058515 0.0112731205
      0.00338011701 -0.00849750917 0.0139564592 -0.0119025931
      -0.00535852043 -0.0111970566 -0.00157742365 0.0017127638
      0.0155319646 -0.00259596622 -0.00557598006 0.0139672719
      -0.0144118946 -0.020359451 -0.0186312627 -0.000388073182
      -0.0150206825 0.00423113815 0.00598032074 -0.00487110531
      0.0310250167 -0.00313081918 -0.0110606588 -0.0219244305
      -0.0282845143 -0.0154476073 0.00385121838 0.0124749849
      -0.00587744825 0.00582482852 -0.00200391258 -0.0184631161
      -0.00798188243 -0.0244698934 -0.0089995889 0.0124474866
      0.00707505178 0.00919359829 0.0285761915 0.00260058302
      -0.0231179409 -0.0236754008 -0.016697064 -0.00425545685
      0.0087932786 0.000444372912 -0.0192344654 0.00932469312
      -0.00881242845 -0.0184151307 -0.0106622102 -0.0200564936
      -0.00418353593 -0.00307087344 0.00372930197 -0.0294688325
      -0.00626754621 0.00399123086 0.00229781936 0.0202402025
      0.000482860691 0.000740375894 0.00666511711 -0.0019452842
      -0.0320354849 0.00421660347 0.0218559187 0.00710558519
      0.0123580797 0.0137269674 0.00506222155 -0.00829962548
      -0.0068296208 -0.0358872041 -0.014379221 -0.0120710162
      0.00535532366 0.0159143526 -0.00542836776 0.0115046548
      -0.00421737088 0.0019293786 -0.0216116421 0.00695554772
      0.0113903144 0.00444994401 0.006673845 0.00666074501 0.00282240589
      -0.00356182223 -0.000599360617 -0.0153928259 -0.020866625
      -0.0273613576 -0.00207134429 -0.0010781287 -0.00107660808
      -0.00926031545 -0.0129472399 -0.00283627096 0.000283054862
      0.00227960595 -0.0143464897 0.00234074215 -0.0133892838
      0.00478752656 0.00442242203 -0.000354427757 -0.0019878915
      -0.0043929792 -0.0169526339 -0.0132311368 0.0177067965
      0.00453204103 -0.00131356448 0.00210372498 -0.00861837063
      0.0117030554 0.0119095566 0.0239779372 0.00695926091 0.0103457207
      0.00926825218 0.0102242613 -0.0139561472 -0.0250462182
      -0.00796171091 0.00962125603 0.0037740618 -0.00612000516
      0.0039891717 -0.00192441081 -0.0076619992 -0.010915204
      -0.0222779103 -0.0141259832 -0.00751073658 0.0131116649
      -0.00535891112 0.00436701579 0.0097972909 -0.000283351517
      -0.0119921751 -0.0221180972 -0.00207775156 0.0160161331
      0.0178150032 0.0137093412 0.00971871428 0.00213936367
      0.00103142019 -0.0110927122 -0.0255316496 -0.00582544133
      0.0179294832 0.0245588664 0.00891914591 0.00133017707
      0.000335594144 -0.00534251891 -0.00413206359 -0.0052826195
      -0.00753373979 -0.00598391471 0.00182457163 -0.0100535192
      0.0141646704 0.0144752208 0.00909853727 -0.00520922337
      -0.0119869066 0.00196247478 9.87400708e-05 0.0227085073
      0.00726106623 -0.00965362415 -0.00291722151 -0.0044183284
      -0.0133040594 -0.017139487 -0.00444443803 0.00996929873
      0.0132874455 0.00593325868 0.00899861287 -0.0106293708
      -0.00399279222 -0.0360951759 -0.0299775023 -0.00618669624
      -0.0013877044 0.012814004 0.0200275797 0.0157285966 -0.0103957579
      -0.0165333189 -0.00410906877 0.0023697461 0.00583304092
      -0.00359591329 0.0157214552 0.0169396531 -0.00239479169
      -0.00554194301 -0.00323857367 -0.0133300489 0.00029567274
      -0.00703255599 -0.0216189902 0.000224931777 0.00626587542
      0.0104389219 -0.00129812257 -0.00184319098 -0.0100136613
      -0.0173375048 -0.00572422799 3.07269765e-05 0.0181166641
      0.0184986275 0.0153341694 -0.0055807773 -0.00651905732
      -0.00599234644 -0.00739339227 -0.00735835405 -0.0112710716
      0.0165023468 0.013482715 0.0120112551 -0.00175471231
      -0.00566748111 -0.0074102534 -0.0108821997 -0.0129569368
      -0.0259981845 0.010460753 -0.00525280926 0.0102823954
      0.00558463437 0.00161594478 0.0146584027 -0.00294210506
      -0.00332246767 -0.0164629892 0.0072260974 -0.0164533816
      -0.00800504349 -0.0100750048 0.0105476836 -0.0114726601
      -0.0120208552 -0.00164597377 0.000529267243 0.00726686092
      0.00348718395 0.0051342356 2.63784823e-05 -0.00861028396
      0.00933772326 0.00293940236 0.00561107043 0.00526848808
      -0.0110431174 -0.0128949061 -0.0133181717 -0.00529502891
      -0.000370101101 0.00696856435 0.00756989326 0.00934210327
      -0.0104384692 -0.0116319507 -0.0150219519 -0.0184702091
      -0.0207831487 -0.0124824913 -0.00626280066 0.0028575703
      0.00295468932 -0.0202702414 0.00383115304 -0.00582049601
      -0.00747059193 -0.0154580446 -0.0116038835 0.0308445245
      0.00118498248 -0.0220872331 -0.0257657673 -0.0222570039
      -0.0196493007 -0.0105924979 0.00595314754 0.0212415885
      0.0429385453 0.0132621229 -0.00199455349 -0.0155699877
      -0.00925080851 -0.0103258975 0.00297740754 0.012005154
      0.0358687155 -0.0213778708 -0.0171678811 -0.0130984569
      -0.00824341178 0.00553580839 -0.00306285406 0.00249692705
      -0.00773158623 -0.0131107885 -0.00433048233 -0.00591363152
      0.00966086518 0.00885668863 0.0139697343 0.0140498467 0.0213345233
      0.0109363245 0.00450616656 0.0058619515 -0.0115351109
      -0.0140479393 -0.0218557958 -0.0178606827 -0.00638714479
      0.00615447573 0.00233892701 0.0210496485 -0.00757077802
      0.00486439001 -0.00100195012 -0.014311471 3.79321391e-05
      0.01808751 0.0199927073 0.0168393347 0.00979215279 -0.00516869267
      -0.00242525572 -0.00198628427 0.00933714584 0.0133342454
      0.017645292 0.0157252699 0.00898190495 0.00448170817
      -0.00804829877 -0.0207060706 -0.0225529782 -0.0164430514
      9.34223572e-05 -0.0173498001 0.00326259341 -0.000652531686
      0.0014310471 0.00289103948 0.00524638547 -0.0143733621
      -0.00203992752 0.00905148499 0.0169557035 0.0163523629
      0.0180832334 0.00683570839 0.00857756566 -0.0267051775
      -0.0425507687 -0.0285559334 -0.00146482105 -0.00701795518
      0.015705511 0.0106664989 0.0240775645 0.00205093529 -0.0135131972
      -0.0186777804 -0.0125866383 0.00435751304 0.00457224064
      0.0151130082 0.00978934579 0.0174642652 -0.00318478467
      -0.012727581 -0.0313073993 -0.0212965906 0.0112824589 0.0109427599
      0.0189313423 0.00165323506 -0.00773753226 0.0129385544
      -0.0181816984 -0.0344394818 -0.0249477141 0.00858758949
      0.000410808832 0.0133795431 0.0143747441 0.0275629181
      -0.00336492085 -0.0175079852 -0.0244785696 -0.0181963947
      0.016460361 0.0049506072 0.00718264375 -0.00426500523
      -0.0088816043 -0.00122504204 -0.0139249163 -0.0258613583
      -0.0181029923 0.00469838409 0.000958713877 0.0113408593
      -0.00796693843 -0.0160415694 -0.00612974074 -0.00548779592
      -0.0117506646 -0.00372577622 0.00798067357 -0.00900282338
      0.0112679759 0.00113951566 -0.00485255895 -0.00632492732
      0.00364700961 -0.0184410866 -0.00363240042 0.0202935487
      0.00583214778 0.0110668382 -0.0186441168 -0.0166880526
      -0.00891862623 0.0166981649 -0.00110351644 0.00433208607
      0.0153396437 0.00778218033 0.0121606253 -0.012639449
      -0.00770707475 0.00895305909 0.0100668631 -0.00211883755
      -0.00305097969 0.00850582588 -0.0278733186 0.000769518781
      -0.000996326562 0.0130267646 0.023587836 0.00762335956
      0.00343971071 -0.0074202423 -0.0125078009 -0.0401747562
      -0.00745509006 -0.00281357858 0.0285224002 0.000553886639
      0.0123003013 0.00268755108 0.00353832892 0.0139521249
      -0.0143358763 -0.00455828896 -0.00795688201 -0.00565296132
      0.00746042421 0.00778780365 0.0121187791 0.00774284592
      -0.00116698933 -0.0217320174 -0.00966969505 -0.0124080861
      0.00155343069 0.032129243 0.0136020659 0.0075152549 0.000179469906
      -0.0257381238 -0.0284638051 -0.00778485928 -0.00672444375
      0.0299783088 0.0225018375 0.025906371 0.0152525026 -0.004959343
      -0.0112072341 -0.0116346385 -0.00764942495 -0.0168128256
      0.00162996317 0.0175164081 0.0242406093 0.0164259933 0.00384980068
      -0.0153721338 -0.0248131379 -0.0139449742 -0.0106470454
      0.0195762664 0.029316619 0.0217457805 0.0166701935 -0.00298358453
      -0.00526180631 -0.0096624773 -0.0122960815 -0.0130068334
      0.0186215956 0.00926996581 0.0181236938 0.00640573818
      -0.0144214947 -0.00114097749 -0.00987564959 -0.0124204746
      -0.0122778155 -0.00483404752 -0.00467965147 0.0138118556
      0.00896525383 -0.00394243374 -0.00256554177 -0.00547662843
      -0.0157291647 -0.00770906173 -0.00374797778 0.0155467084
      0.0223647021 0.00866772793 -0.00144327001 -0.00121727108
      0.00510539999 -0.00403175969 -0.0131211942 -0.00292237918
      0.00487188948 0.0165330693 0.025902031 0.000453350367 0.0102090975
      0.0153111899 0.00233877869 -0.00513997767 -0.00738223037
      -0.00326510426 0.00889727846 0.00952495728 0.00676416745
      0.0119673368 0.00887031481 -0.0160455517 -0.0162752159
      -0.00406359974 0.0160957687 0.00814024452 -0.000288295938
      -0.031359259 -0.0165952146 -0.00561186066 -0.0174433477
      -0.011706938 0.00761568407 2.21118153e-05 0.0049784109
      0.0219350532 0.0221769717 0.0125752073 0.0187508501 0.000852369179
      -0.00288734771 -0.00137624843 0.0222358108 -0.00198094989
      0.0111494297 -0.00236704992 -0.0143255405 -0.00937093887
      -0.0114664566 -0.00553320581 0.0161834396 0.0265526827
      0.00501793809 -0.00313510676 -0.0359154791 -0.0347734913
      -0.0151895545 -0.00701653771 0.00179726456 0.0127138868
      0.0333524011 0.023482522 0.0144973584 -0.0292897131 -0.0178860016
      -0.0020169674 0.00224468182 0.00672870129 0.0186673049
      0.0296817869 0.00648899283 0.00464164745 -0.0222609844
      -0.037352372 -0.014857851 -0.0123010604 0.00110037602 0.0221857149
      0.0324264988 0.0342788771 0.0324264616 -0.00624176348
      -0.0143038053 -0.00155536062 0.00442740135 0.0132912025
      0.0169370659 0.00356454519 -0.00993886031 -0.0166805554
      -0.0118671367 -0.0178164989 -0.011369884 0.0110682938
      0.00546822604 0.00862693042 -0.00229417323 -0.011884612
      -0.0091216173 0.00126596901 0.0096991146 0.00608184235
      0.0181467049 0.0168553945 0.0173864793 0.00832251366 -0.0225175284
      -0.0372815952 -0.0281582233 -0.0230320767 -0.0209729876
      -5.14348503e-05 0.010198433 0.0101364721 -0.00342179392
      -0.0281593967 -0.0346906334 -0.0219126921 0.0068459441
      0.0165750924 0.0194584802 0.0117127933 0.013605373 -0.0204027332
      -0.0227916371 -0.00042623491 0.00866083242 0.0104930224
      0.00191465975 0.0102993865 0.00518480223 0.00615910627
      -0.0123316254 -0.0241464134 0.00051674206 0.0167826526 0.012862118
      -0.00793690141 0.00742077827 -0.00120218343 -0.0115098115
      -0.0314709581 -0.0201276913 -0.00658381404 0.0129801994
      0.0146118207 0.00630641915 0.0070653744 0.00406049192
      -0.0115166111 -0.0338808522 -0.00626991922 0.0180752687
      0.016347969 0.0122741982 -0.0109041799 -0.00680501666
      -0.00690740254 -0.0177347958 -0.0190369003 -0.0224629119
      -0.00741180591 0.0134720299 0.021507537 0.00901747216 0.0192523897
      0.00651185587 -0.005326638 -0.0379948802 -0.0381003059
      -0.00939994492 0.00585767766 0.0197923146 0.0260487776
      0.0216266494 -0.00469922274 -0.0124490671 -0.0270989705
      0.00699338969 0.0160129368 0.0201790277 0.0143372798 0.00160737126
      -0.00295667397 0.0017886305 -0.0117665743 -0.0379066989
      -0.00353218499 -0.000122454425 0.0116782393 0.00668794289
      0.00486125797 -0.00710324291 -0.00170220667 -0.0150300823
      -0.00518905884 -0.021347193 -0.0164375659 0.00166358636
      0.0141588636 0.0120254522 0.011025684 0.00538672367 0.00129003311
      -0.000238868059 -0.0117341606 -0.00798803195 -0.000675227027
      -0.0026927765 -0.00783515908 -0.0137401866 -0.0130746784
      -0.00222203252 -0.0150856394 -0.00259775063 0.00417651609
      0.0040550218 0.00512324832 0.00221496564 -0.00824258104
      3.10130999e-05 -0.00315697514 0.020020619 0.0122482143
      0.0161006339 0.0020471476 -0.00603310531 -0.00489186216
      -0.0215513296 -0.0194366276 -0.00874573924 -0.00735401735
      -0.00444178144 -0.00960733928 0.00479122018 -0.00375824748
      -0.0166519247 -0.0114059988 -0.005189416 -0.0212430581
      -0.00731050037 -0.00434237905 -0.00710631628 0.00906931516
      -0.0279813111 -0.0349508002 -0.0183079839 0.000817721186
      -0.0200884733 0.0285527986 0.0130611956 0.0073983809 0.00755926454
      -0.00445717573 -0.0109328972 -0.0220093969 -0.0148522379
      -0.00106007687 0.0185938943 0.0224136375 -0.00774452649
      0.00435100915 -0.00801019464 -0.0250421129 -0.00372396968
      -0.00355250598 -0.00829017255 0.00644416688 -0.0183801353
      -0.030866079 -0.00497988891 -0.0297242515 -0.0335868746
      -0.00942207128 0.00550458953 0.00580944074 0.00417510979
      -0.0124032861 -0.0232840944 -0.0282788277 -0.0278998893
      -0.0133133186 0.00687142462 0.00569405686 0.0142383296
      0.0333910473 0.00982969254 -0.0104113482 0.000370467722
      -0.0136710713 -0.0214358382 0.00264461827 0.00242953189
      -0.00964383036 0.013511857 0.011903394 -0.00136681285
      0.00994016044 -0.00791362301 -0.0172866043 -0.00381077128
      0.00260414579 0.0025722417 0.00684568333 -0.00844520424
      -0.0122325728 -0.0219855793 -0.0232766997 -0.000512388884
      0.00594385434 0.00431211339 0.00517597748 -6.35387187e-05
      -0.00150127301 -0.006919045 -0.0227190293 -0.0187057368
      0.0130488686 0.00873271376 0.0149967372 0.00934396032
      0.00511730136 0.0095497882 0.00488434266 -0.00580644235
      -0.0127934124 -0.00800961349 -0.00721311802 0.00597090553
      0.00958533771 0.00182406523 -0.00587377045 0.000982136349
      -0.0289969724 -0.0197916925 -0.00296184514 -0.0182396248
      -0.00129762758 0.00842655171 0.0171888527 -0.00375383883
      -0.0124124754 -0.0103729237 0.00444285152 0.0248817485
      0.0105855754 0.0113962609 0.0205309298 0.0285746604 -0.0134247337
      -0.0445453711 -0.0446569547 -0.0105462009 -0.00289733266
      0.00585915102 -0.00163083675 0.0294991452 0.00928323716
      0.00662706327 -0.00949805137 -0.0314131975 -0.00865211245
      0.00536677148 -0.0149589581 -0.0110442163 0.00278299744
      0.0160791595 -0.00989429839 -0.0406733304 -0.0396006033
      -0.0276698917 -0.0137751903 -0.0182072446 -0.022425618
      0.00600779243 0.0185408592 -0.0203584246 -0.0452576354
      -0.040269386 -0.0163442604 -0.00943985861 -0.00168653694
      0.000861222623 0.0284388736 0.0026999088 -0.0166246295
      -0.0150816301 -0.0158565473 -0.00904789753 -0.0106875869
      -0.0107012512 -0.0249962769 -0.0059874258 0.0113296742
      -0.0118019087 -0.0293587148 -0.0196413994 -0.0124374283
      -0.00396757433 -0.00785614457 -0.00966880936 0.00316404435
      0.000393947499 -0.00532784313 0.00502369832 -0.00704300404
      0.0189104043 -0.00276671024 -0.0112787066 -0.0187336132
      -0.0053155371 -0.0102280108 -0.00603114069 -0.0211342834
      -0.0064002974 0.00671835616 -0.00565648358 -0.00873862114
      -0.0308137033 -0.0253515895 -0.0168210734 0.0118047968
      -0.000286878581 0.00915362593 0.00892565958 0.00049126154
      -0.0181040689 -0.0403282829 -0.0248873923 -0.00192521012
      -0.00297329971 0.00306810858 0.01089592 0.00332692103
      -0.00850325823 -0.0200481061 -0.0213401653 -0.00541494321
      -0.00982949696 -0.00467397179 0.00960022025 0.0165151469
      0.00196017977 -0.00555209396 -0.0332968384 -0.0431662239
      -0.016368784 -0.0107295839 -0.00690001808 0.00351644913
      0.00924021471 0.0201643147 -0.00864994619 -0.0192133281
      -0.0425949953 -0.0264142007 -0.0166744813 -0.0126404436
      0.00728128292 0.0202738624 0.0132081732 -0.0113172298
      -0.0233940128 -0.0341569483 -0.0263098348 -0.0118240202
      -0.0104374159 0.0123063335 0.031071838 0.0258629955 -0.00748616457
      -0.0333111472 -0.042695798 -0.0174397845 -0.00324649015
      -0.00479925284 0.00849364139 0.0257060081 0.00757224672
      -0.00361995283 -0.0232852083 -0.0330179408 -0.0190114081
      -0.00934113935 -0.000863902387 0.0170650389 0.0193994008
      -0.00388120767 -0.00752330478 -0.00835460704 -0.0197245702
      -0.0116841616 -0.00550055364 -0.000682389422 0.0134122856
      0.00630147941 -0.00997036975 -0.0125249904 -0.00672321673
      -0.0284529869 -0.0190764554 0.0224783104 0.011725964 0.0147663131
      0.0152422655 -0.00348350848 -0.00358903431 -0.00604331819
      -0.0053694318 0.00324775581 0.0171101671 0.0150750838 0.0159182381
      0.00506090885 -0.0130066201 -0.00198728195 0.0038588054
      -0.00205567945 0.0114887124 0.00925537013 0.0147801125
      0.00594867673 0.00960957259 6.51643422e-05 0.0133841122
      -0.00150835258 -0.0252491049 -0.00466983393 -0.00294765341
      0.0132703455 0.0174373202 0.00551037304 0.00565572875 0.0216523632
      0.00526832137 -0.0153796021 -0.00715697417 0.0203450993
      0.0130323041 0.00557659194 0.0123178996 -0.00543351099 0.015040148
      0.0150770759 0.000915587996 0.0156625099 -0.00377227669
      0.00444486272 0.00564477546 0.0061770319 0.00856137276
      0.0143129472 0.00597432721 -0.00984058715 0.00502762478
      -0.000449342653 0.012845071 0.0163607839 0.0224133022 0.0219741687
      0.0308863334 0.0102402158 0.00276495866 -0.00364368269
      -0.00124352821 -0.00716427574 -0.00104026427 -0.00355348014
      -0.0145273218 0.00684547797 0.00988643803 0.00778232981
      0.00178635051 -0.00854691863 0.00771636423 0.00559694553
      0.0202630181 0.0239955559 0.0296197925 0.0110795973 -0.00155690603
      -0.00577140367 -0.0189925544 -0.013256371 -0.0133962641
      -0.0241613798 -0.00973764993 0.0131860748 0.00747910654
      -0.00387343066 -0.00632100925 0.00750466809 -0.0194460545
      -0.0123746293 -0.0172682274 -0.0249572545 -0.00104488281
      0.00716167036 0.00436292402 0.00642897515 0.0117712356
      0.00546017988 0.00804946013 -0.00847883709 -0.00979633909
      0.0091287354 0.00827713031 0.0144375293 0.00901595131
      -0.0165139101 -0.0210135579 -0.0162860006 -0.0272476133
      -0.0144229215 0.0169052053 0.0171737988 -0.00373839424
      -0.00395274768 -0.00876431167 -0.00736510148 -0.00243232748
      -0.0118982503 8.70050062e-05 0.0313802287 0.0242782626
      0.0169013925 -0.000258133077</_></support_vectors>
  <uncompressed_sv_total>53</uncompressed_sv_total>
  <uncompressed_support_vectors>
    <_>
      0.0594017729 0.0560282171 0.122474164 0.189256161 0.162517384
      0.0962974057 0.117924042 0.0268486273 0.0589118674 0.179283425
      0.211040333 0.222664401 0.210782334 0.137423828 0.225597784
      0.229404375 0.085904941 0.217363685 0.0391121432 0.0800487995
      0.119206354 0.229404375 0.229404375 0.0849807635 0.0963115245
      0.113496646 0.135762155 0.105152108 0.141792789 0.224025339
      0.229404375 0.229404375 0.229404375 0.229404375 0.179424331
      0.198640689 0.165021464 0.235661298 0.154056832 0.0735598654
      0.0551056713 0.0757686496 0.178322047 0.127557591 0.21128282
      0.229069963 0.237413436 0.11374861 0.0659907982 0.0465476252
      0.023147691 0.14768672 0.191091985 0.181120217 0.176012158
      0.191411912 0.221535191 0.146932513 0.174224854 0.16066806
      0.179838836 0.123495735 0.138551176 0.237413436 0.237413436
      0.237413436 0.113208987 0.0587332025 0.0429408662 0.126054049
      0.208702147 0.237413436 0.248661235 0.248661235 0.107098587
      0.104669124 0.0796702877 0.0324876793 0.09578529 0.121861547
      0.143451661 0.198805839 0.207541674 0.105857648 0.0705254376
      0.1201386 0.0890103355 0.128427893 0.107203595 0.0930524841
      0.248661235 0.248661235 0.225790665 0.13145642 0.0762969553
      0.0397453792 0.125387952 0.248661235 0.248661235 0.195640609
      0.213633254 0.158927828 0.0664920285 0.105402835 0.148062482
      0.248661235 0.248661235 0.180649415 0.133234352 0.252095699
      0.152917042 0.0814233199 0.132041901 0.13767238 0.121166334
      0.0956491902 0.0512126312 0.234319985 0.252095699 0.252095699
      0.206881449 0.0493267998 0.0292471629 0.0143588232 0.0116105257
      0.0339009874 0.194593638 0.220442727 0.187192842 0.111290537
      0.116687775 0.150477305 0.252095699 0.230271533 0.149633527
      0.252095699 0.252095699 0.252095699 0.252095699 0.0885742456
      0.0524457097 0.0436445139 0.0564973466 0.121309884 0.260292053
      0.247613043 0.113962591 0.0858189687 0.0163230672 0.0130558442
      0.000588874856 0.0154025219 0.0446489826 0.352169693 0.261542469
      0.143307135 0.0495680124 0.00783800147 0.0107517624 0.000210329672
      0.0232165493 0.15194951 0.352169693 0.312192619 0.114438824
      0.0907568708 0.02907761 0.0281946454 0.0119778011 0.0636066124
      0.132870078 0.352169693 0.27002725 0.0653502122 0.0264522992
      0.014369362 0.0103985565 0.0104592852 0.111844659 0.352169693
      0.383663088 0.131212145 0.0675798059 0.0119182486 0.00218470138
      0.000538688735 0. 0.00335783814 0.144778028 0.383663088
      0.087897025 0.0263130628 0.00744669 0.00668276148 0.00081361807
      0.00186070998 0.00178499159 0.226433337 0.383663088 0.0794909969
      0.0290428903 0.00492196623 0.00312434533 0.0002448585
      0.00261858013 0.0279838685 0.383663088 0.383663088 0.0343557633
      0.0133846859 0.00295788958 0.00376320793 0.000369826419
      0.00244728127 0.0301266722 0.383663088 0.369127095 0.0277124755
      0.00589820836 0.00299810688 0.00594392093 0.00185334787
      0.00213201251 0.00390047231 0.227817014 0.380747765 0.0353719555
      0.00201865728 0. 0.00284567848 0.00084243092 0.000493579195
      0.00265329657 0.279741496 0.380747765 0.0141554391 0.00629309937
      0.00102547579 0.00561119197 0.00084243092 0.00412725378
      0.0275480524 0.380747765 0.380747765 0.0299894679 0.00290826894
      0.000718941446 0.00405829493 0.000382923143 0.00458687684
      0.028360866 0.380747765 0.34023881 0.0477361865 0.00592520786 0.
      0.00120813062 0.00122616522 0.00131230615 0.0129444217 0.283294737
      0.242109179 0.0432234071 0.00909406971 0.00179588771 0.0015020452
      0.002820767 0.00303644454 0.0527710356 0.235564739 0.384725541
      0.0303236991 0.0156485755 0.00139542064 0.00103427353
      0.00700038299 0.0076615368 0.177722842 0.384725541 0.220266446
      0.0292874109 0.0220021941 0.00720008742 0.00551458029 0.041627828
      0.0468636565 0.384725541 0.384725541 0.320416421 0.0529058129
      0.0179723613 0.0052719377 0.00487017399 0.00290341908
      0.00429237681 0.101175912 0.309853673 0.320416421 0.0729810372
      0.0362194292 0.0073017953 0.0178190675 0.00636710925 0.0076893121
      0.0551141389 0.278155088 0.155804425 0.0364659131 0.0299558211
      0.0313799158 0.0156604946 0.115778081 0.233718231 0.320416421
      0.320416421 0.0778969303 0.0306585003 0.047839243 0.0233941898
      0.0283623151 0.092944853 0.297469825 0.320416421 0.288038462
      0.342409283 0.191799268 0.0985891372 0.0158165321 0.0428054035
      0.00853625778 0.0158452597 0.0595022142 0.342409283 0.342409283
      0.178844929 0.0789251253 0.0169131439 0.0549602583 0.00260946783
      0.0297128018 0.0784580261 0.342409283 0.200858593 0.0654681101
      0.0680717155 0.0207749084 0.0625462681 0.0725671723 0.235147774
      0.260183066 0.294698596 0.260117114 0.0741793737 0.0517587774
      0.00605090056 0.0400256515 0.0111894673 0.0649270564 0.0901081413
      0.260633916 0.320616931 0.139750391 0.0599130467 0.0243792068
      0.0673758388 0.0119962916 0.037920747 0.0857100114 0.320616931
      0.320616931 0.0894992352 0.0705805793 0.0209679324 0.125126824
      0.0517393909 0.047331173 0.0569512881 0.320616931 0.265739709
      0.117124267 0.0902170911 0.0270958357 0.0474174172 0.0108655756
      0.0600369386 0.0954916105 0.240519643 0.320616931 0.320616931
      0.142815247 0.034017887 0.051683642 0.0154623184 0.0439157411
      0.1012863 0.320616931 0.209241509 0.0274140518 0.0445217676
      0.0162288006 0.10167978 0.0688730776 0.0555009507 0.0519231707
      0.177408814 0.208528861 0.053961087 0.0617088825 0.0365776569
      0.156840131 0.117463119 0.0935724974 0.0405783914 0.201970622
      0.400784105 0.228110954 0.0929141417 0.0334214531 0.0503441952
      0.024677543 0.0507107228 0.0650419295 0.345523119 0.400784105
      0.162172869 0.100141257 0.0709577277 0.14038448 0.112851344
      0.0832598582 0.0448632017 0.400784105 0.137820467 0.0951855481
      0.0800615028 0.0576988757 0.0911813304 0.0447729565 0.0258092396
      0.00283988239 0.121794991 0.288249433 0.276839554 0.171955332
      0.0666744262 0.0799894631 0.053125646 0.036185544 0.00866204035
      0.270516127 0.288249433 0.212487638 0.0863529146 0.0845537186
      0.172145694 0.0980719551 0.0328899287 0.00619638106 0.288249433
      0.288249433 0.288249433 0.220345601 0.0907591209 0.196015909
      0.190412074 0.0913221091 0.0244243126 0.288249433 0.291201353
      0.151927158 0.0529049151 0.0164502766 0.0378470197 0.0368558019
      0.0278657153 0.0223633889 0.291201353 0.291201353 0.036507152
      0.0250556488 0.0166832656 0.0671726689 0.028579751 0.0986394137
      0.1297867 0.291201353 0.291201353 0.260816216 0.103561737
      0.0288899522 0.0731862336 0.110602289 0.0809998438 0.0599615574
      0.291201353 0.291201353 0.0889779329 0.0414444357 0.0509017482
      0.158003539 0.078479223 0.170358583 0.273205638 0.291201353
      0.181688592 0.0172167011 0.0530487858 0.0263942219 0.149202138
      0.0855722651 0.181958094 0.15609093 0.265495956 0.189492643
      0.0469373837 0.0546840765 0.0393566526 0.165403217 0.0802512392
      0.0867348611 0.0291961674 0.185653687 0.0741169453 0.0169940237
      0.019670032 0.0360579304 0.265495956 0.210629582 0.265495956
      0.265495956 0.265495956 0.0583873466 0.0184157342 0.0304959342
      0.0257640686 0.265495956 0.250223786 0.265495956 0.265495956
      0.265495956 0.0477249809 0.0840632617 0.0861986503 0.249186978
      0.249186978 0.0611907169 0.0324515775 0.113923021 0.119553797
      0.249186978 0.168605745 0.103955962 0.216253713 0.244960189
      0.132619366 0.140363306 0.193573937 0.249186978 0.0381124243
      0.0621641167 0.102734491 0.249186978 0.249186978 0.199973211
      0.059141513 0.0523571037 0.0561629161 0.249186978 0.170669585
      0.111013144 0.247966483 0.149459988 0.14743115 0.0823961198
      0.109953254 0.249186978 0.242283255 0.192773074 0.180178642
      0.122497939 0.110280856 0.0897626132 0.1053918 0.0733455047
      0.231433034 0.242283255 0.242283255 0.242283255 0.228981689
      0.0781963915 0.0326863751 0.0518032573 0.0859474912 0.195608184
      0.242283255 0.160950974 0.0984626412 0.118012525 0.0996210054
      0.0649405122 0.0493565425 0.0478821285 0.242283255 0.197554737
      0.202567726 0.242283255 0.242283255 0.242283255 0.08197999
      0.0981543511 0.0971578211 0.110302791 0.128464073 0.207599729
      0.229724497 0.141510889 0.068746984 0.0276540332 0.044097539
      0.110592395 0.131241307 0.120946981 0.233138651 0.190180779
      0.0606819727 0.0547511578 0.0477926433 0.0969298333 0.117875814
      0.123137161 0.202001274 0.226115406 0.227391541 0.270606279
      0.225631058 0.0504418537 0.126076177 0.13937594 0.125088021
      0.27910912 0.27910912 0.239393875 0.152385175 0.108755767
      0.0404221192 0.0966112688 0.130509332 0.27910912 0.176359624
      0.131860808 0.0883112773 0.0277001318 0.0188656133 0.0161786154
      0.0493259244 0.0602473319 0.135746315 0.311383069 0.131953403
      0.0402431153 0.0299463049 0.0157799926 0.00883613154 0.0132650891
      0.0179094933 0.116656274 0.42443797 0.172256991 0.0832802579
      0.0317701995 0.021653628 0.0136337895 0.0440780595 0.0976435766
      0.42443797 0.42443797 0.062829487 0.0192104317 0.0104130888
      0.00452768151 0.0024956502 0.0392432623 0.0771045387 0.42443797
      0.381209701 0.104294635 0.0186358262 0.0121387271 0.00718179438
      0.00724882958 0.00758792227 0.0193875395 0.103099555 0.398880929
      0.0695312098 0.00601361971 0.00585352257 0.0051330924
      0.00133284077 0.00580464164 0.0328625888 0.214431211 0.398880929
      0.0579849072 0.00924263801 0.00123314327 0.00116597814
      0.000861158303 0.0240549836 0.0455725901 0.398880929 0.398880929
      0.131068826 0.00798911974 0.00505399145 0.000818400702
      5.74105507e-05 0.0136666745 0.0345975123 0.33903414 0.377738446
      0.0322858766 0.00204515574 0.00385260629 0.0020267528 0.
      0.00173538749 0.0131871467 0.245758086 0.377738446 0.0430683047
      0.00734186545 0.00143029157 0.00181571429 0. 0.00196766574
      0.0191784948 0.377738446 0.377738446 0.0783563778 0.00247840886
      0.00341861555 0.000282231777 0. 0.00692100683 0.011020775
      0.242147759 0.377738446 0.101894632 0.00462918775 0.00055604917
      0.00193865492 0.00145580305 0.00615290087 0.0277898703 0.377738446
      0.352214873 0.0422150977 0.00882522576 0.000716471346
      0.00382418372 0. 0.00353519851 0.0173585266 0.352214873
      0.352214873 0.0752136558 0.00344862626 0.00570998341 0.0101588024
      0.00090560253 0.00618246291 0.0229655802 0.352214873 0.352214873
      0.079099521 0.00393975805 0.00065341033 0.00978815742
      0.00603667647 0.00554740662 0.0500032865 0.352214873 0.352214873
      0.108287275 0.00271723676 0.0226088706 0.071375221 0.0297982562
      0.0227212068 0.0497480892 0.298963934 0.305289477 0.0484261774
      0.00540163787 0.0325697362 0.0283760969 0.0112471413 0.0155586861
      0.159340039 0.305289477 0.162515074 0.0446101762 0.016360715
      0.0602900647 0.0482373536 0.0873395205 0.113068514 0.305289477
      0.305289477 0.305289477 0.0686119124 0.00286677876 0.0908368379
      0.181845739 0.0953124315 0.0667212605 0.105075307 0.2813434
      0.0911196619 0.0747467279 0.0579574071 0.154053047 0.173464581
      0.262436748 0.215161085 0.201689661 0.263090163 0.0529423878
      0.0461319573 0.0245152581 0.0485875905 0.0645164698 0.228963181
      0.251780301 0.251780301 0.251780301 0.014271453 0.00756969023
      0.0278649144 0.0242701024 0.0609809943 0.251780301 0.251780301
      0.198825568 0.122250117 0.0338857807 0.146851048 0.175250173
      0.191779792 0.167196646 0.251780301 0.251780301 0.190216869
      0.142909676 0.020246787 0.0598622896 0.122456044 0.199073762
      0.207290307 0.251780301 0.251780301 0.133520976 0.09198118
      0.0428980775 0.00819999911 0.0346540436 0.0458668247 0.132733658
      0.279076904 0.279076904 0.239652067 0.113777854 0.0703441054
      0.0249159653 0.0429364927 0.0367177427 0.0782044306 0.0501239672
      0.0798717365 0.0475408584 0.0700002313 0.0539971516 0.043402575
      0.115943938 0.279076904 0.279076904 0.279076904 0.279076904
      0.279076904 0.198535413 0.108493879 0.0463233106 0.0474327542
      0.100058638 0.268194377 0.17150782 0.197058067 0.279076904
      0.161213875 0.06056365 0.0401102193 0.17822659 0.106974967
      0.0666178241 0.00942068268 0.0220453143 0.0124525828 0.0447571054
      0.277757198 0.277757198 0.277757198 0.182262585 0.0658932999
      0.00675931573 0.00945889205 0.0209959988 0.163619101 0.0381279811
      0.0280872695 0.194982767 0.273684978 0.277757198 0.175543159
      0.0428868718 0.0344908349 0.0367865972 0.224874184 0.277757198
      0.277757198 0.277757198 0.277757198 0.22357817 0.0215868596
      0.0464239158 0.0769954622 0.334403574 0.201486632 0.0836839303
      0.04265403 0.0132399239 0.00285040704 0.00938126165 0.0133722983
      0.12318068 0.334403574 0.114671081 0.0228682365 0.0113412049
      0.0139449732 0.0132214427 0.018984722 0.0144263422 0.288987309
      0.334403574 0.332214475 0.22598888 0.101797603 0.0644260198
      0.0343922935 0.0101074707 0.0493908562 0.0814177468 0.334403574
      0.334403574 0.158836097 0.0390678458 0.0138911568 0.00976007432
      0.0175586101 0.0744952783 0.234582931 0.341016829 0.100861944
      0.0130102662 0.0118504856 0.032831993 0.0180297624 0.0108121205
      0.00694706663 0.299131274 0.341016829 0.167542204 0.0321212374
      0.0150281722 0.0401792303 0.0365388989 0.027850559 0.0208031815
      0.294272631 0.341016829 0.141008705 0.0766032264 0.0744282156
      0.0298055541 0.00479597505 0.0144527946 0.0474671312 0.341016829
      0.341016829 0.062973313 0.0349860974 0.0766208842 0.039815411
      0.00744895032 0.101976566 0.139500022 0.341016829 0.295207083
      0.189943805 0.0643959492 0.0199975986 0.0316741094 0.047556147
      0.0646088421 0.0688721016 0.295207083 0.220489845 0.0838948041
      0.0503892154 0.0641712695 0.086809963 0.0490525961 0.118218511
      0.295207083 0.295207083 0.295207083 0.0611856282 0.0201577619
      0.0469633415 0.0384040549 0.0194222704 0.202288598 0.203762159
      0.295207083 0.295207083 0.0493157879 0.0489314646 0.0777858421
      0.0573762693 0.0378293432 0.115104951 0.203319907 0.295207083
      0.0620517842 0.0325080454 0.0206384063 0.0335283466 0.15469639
      0.0650594011 0.197535217 0.25107646 0.25107646 0.0259836428
      0.0345565341 0.0286318697 0.0681546926 0.191312701 0.137163311
      0.25107646 0.25107646 0.25107646 0.25107646 0.14610295
      0.0899194255 0.0728228167 0.146357581 0.0303663928 0.0869424641
      0.170878842 0.25107646 0.113672838 0.25107646 0.25107646
      0.22219874 0.241893366 0.0984288305 0.161832586 0.153287143
      0.140461221 0.0159812141 0.0695772022 0.140408501 0.253092051
      0.253092051 0.253092051 0.125580892 0.0336631499 0.0161709357
      0.0782794952 0.11811728 0.209349588 0.237088725 0.155216113
      0.240758449 0.152047515 0.0868445411 0.103890531 0.0236381777
      0.195110634 0.253092051 0.253092051 0.253092051 0.12448673
      0.0505019054 0.00737597933 0.00508965738 0.0716087595 0.253092051
      0.253092051 0.253092051 0.230235249 0.117098749 0.0755072981
      0.0244077463 0.0215943996 0.0720533729 0.104740292 0.147001222
      0.185807154 0.160726458 0.128957957 0.0727851316 0.0514693223
      0.0698298812 0.0947937146 0.207091585 0.191733345 0.263014674
      0.263014674 0.258662343 0.133656397 0.107739516 0.119193375
      0.0447103865 0.10966672 0.223853871 0.206241265 0.20218657
      0.147881687 0.0637908205 0.0382055864 0.0396688879 0.0619321167
      0.198929682 0.206168711 0.263014674 0.263014674 0.263014674
      0.159725994 0.0588531904 0.182409778 0.137449831 0.148385793
      0.136008471 0.165972844 0.200137079 0.0711428598 0.111906908
      0.112222247 0.109176785 0.249567673 0.235050932 0.146422118
      0.152063444 0.133856818 0.0588670745 0.145901158 0.149446949
      0.249567673 0.105933636 0.178226933 0.165267855 0.144406989
      0.180057794 0.140253127 0.12040665 0.083110489 0.114409037
      0.249567673 0.249567673 0.179184929 0.238554716 0.199898377
      0.0922669023 0.156652614 0.149760082 0.228579447 0.304314256
      0.160898119 0.0524381809 0.0385767482 0.0308054592 0.0198998787
      0.0526653603 0.0771616623 0.304314256 0.304314256 0.153540462
      0.0342482217 0.0236113798 0.00349273765 0.00346973049 0.0472454354
      0.0660455525 0.304314256 0.304314256 0.247051939 0.102152161
      0.103377134 0.0684121922 0.0262276307 0.0435853191 0.0591599345
      0.295245469 0.304314256 0.297122329 0.0562811047 0.0408363082
      0.00656474894 0.00952702761 0.0358450301 0.0442393012 0.304314256
      0.390026271 0.0546306185 0.00671717944 0.00352637353
      0.000474419532 0.000591287564 0.0227092989 0.0324532762
      0.214362472 0.390026271 0.0654201582 0.00429677451 0.000374960859
      0.000371361879 0.000180639632 0.00837524142 0.0220063999
      0.240053907 0.390026271 0.132558703 0.00754829543 0.00623636972
      0.00150661753 0.0053410721 0.0137923267 0.022895731 0.313104719
      0.390026271 0.0744471475 0.00880744029 0.00246723532 0.00224722899
      0.00305523491 0.00472254073 0.0186878536 0.390026271 0.340893954
      0.0552131981 0.00199068757 0.000339683291 1.23775362e-05 0.
      0.00577653153 0.0213745646 0.265841395 0.340893954 0.0714538023
      0.00548440637 0.00724410359 0.00539690536 0.00282747415
      0.00639435602 0.0552487448 0.308368266 0.340893954 0.0536486134
      0.0104013309 0.00687309401 0.0104977395 0.00124784594
      0.00379449339 0.113816947 0.340893954 0.340893954 0.0710113794
      0.0208204687 0.0267745201 0.0266171899 0.0278522093 0.0390562229
      0.310485363 0.340893954 0.285496384 0.0952962488 0.0217639748
      0.0622677468 0.0805263147 0.0280746669 0.0147234602 0.135129854
      0.285496384 0.285496384 0.0546865053 0.033519581 0.115086824
      0.230381161 0.0776845962 0.0561302789 0.119362988 0.259682357
      0.285496384 0.11947491 0.0711214244 0.124917999 0.162237048
      0.0852083415 0.110289499 0.285496384 0.285496384 0.117008612
      0.0606367774 0.0826326534 0.171730682 0.285496384 0.19741635
      0.126441464 0.13415204 0.137034789 0.146888956 0.0537416637
      0.0338242911 0.130284235 0.272766352 0.241233483 0.175661132
      0.120931543 0.114804491 0.070537895 0.11498899 0.0869293958
      0.118988521 0.189750701 0.272766352 0.272766352 0.158949271
      0.156886131 0.0565739237 0.0282882713 0.050936535 0.129577458
      0.272766352 0.272766352 0.272766352 0.113847777 0.0958297551
      0.101363324 0.0827810615 0.0320910625 0.0501834676 0.164159089
      0.272766352 0.272766352 0.0707470998 0.136635154 0.0928155258
      0.218549401 0.218549401 0.218549401 0.102090932 0.218549401
      0.196668491 0.153671294 0.188394308 0.0883899406 0.152077243
      0.218549401 0.218549401 0.218549401 0.14020206 0.101838484
      0.18137449 0.204104692 0.106680997 0.16260241 0.128327414 0.161532
      0.176098779 0.212048635 0.151937187 0.0564372428 0.120906577
      0.129484162 0.126720756 0.154021025 0.210851997 0.205593094
      0.0747324005 0.0745416507 0.108635493 0.218313485 0.0597168133
      0.0724541396 0.112783998 0.214305431 0.216249555 0.147563711
      0.182647109 0.243268609 0.163621485 0.0594615862 0.035594549
      0.0311380476 0.0250704344 0.145974815 0.186658785 0.243268609
      0.243268609 0.107485078 0.147083178 0.0767117515 0.107444927
      0.136624858 0.216052279 0.193513915 0.207242936 0.243268609
      0.243268609 0.116420321 0.0613348931 0.0635817498 0.0560219921
      0.129022121 0.243268609 0.243268609 0.243268609 0.167170778
      0.0187761299 0.00909849722 0.0239767339 0.0756928995 0.264314562
      0.264314562 0.156136662 0.106831215 0.0362802818 0.0882831737
      0.105062209 0.137006342 0.144416928 0.264314562 0.264314562
      0.129872203 0.12361934 0.0730034634 0.0326165259 0.0290198568
      0.0181906447 0.0201556254 0.218642265 0.264314562 0.264314562
      0.179194793 0.0519523472 0.16278027 0.112375475 0.161025986
      0.101778604 0.264314562 0.264314562 0.264314562 0.245277166
      0.0893438682 0.20879212 0.258336604 0.189873278 0.0685247257
      0.0786642954 0.0731090084 0.0577300191 0.112801924 0.0868186504
      0.275519967 0.275519967 0.161667079 0.0513235852 0.028591156
      0.00912437215 0.0154569698 0.140084758 0.246879369 0.245165259
      0.178952262 0.201294899 0.137438536 0.115973137 0.0743844509
      0.156466782 0.178369582 0.138667092 0.275519967 0.275519967
      0.202297211 0.121651173 0.067862533 0.0334733278 0.0288766474
      0.112560287 0.275519967 0.283467859 0.184146613 0.0651139095
      0.059899766 0.0403573327 0.00190138677 0.0151777081 0.0732007027
      0.283467859 0.283467859 0.116778806 0.0298871528 0.0877335817
      0.0898775309 0.0192510504 0.110883266 0.160218701 0.283467859
      0.283467859 0.283467859 0.0882792994 0.0282250922 0.0644044429
      0.0531373769 0.0257814247 0.062900573 0.283467859 0.283467859
      0.283467859 0.069803521 0.0908134356 0.147311106 0.0741529092
      0.069500342 0.10341727 0.283467859 0.226480424 0.0887675881
      0.0346622765 0.122847788 0.132038265 0.0706382021 0.218720213
      0.202310205 0.227425009 0.227425009 0.0655705035 0.124365114
      0.135224 0.0975564793 0.0556414127 0.0782633349 0.0758410394
      0.227425009 0.227425009 0.227425009 0.107001379 0.227425009
      0.227425009 0.197089881 0.184748709 0.113589928 0.154356301
      0.210279912 0.165333286 0.227425009 0.224169046 0.227425009
      0.154572368 0.101330958 0.0292422548 0.0710872784 0.242988274
      0.16639708 0.242716208 0.170862943 0.179547131 0.0298420172
      0.0332174636 0.0447683558 0.215994298 0.163993195 0.242988274
      0.242988274 0.242988274 0.242988274 0.0455463938 0.0231174342
      0.017393982 0.102607131 0.242988274 0.181212544 0.242988274
      0.239796683 0.187545985 0.0372479334 0.0239811763 0.0281261541
      0.0790857077 0.187883973 0.149791896 0.215410188 0.189296708
      0.241023555 0.032858979 0.0149606708 0.0389262177 0.0992313176
      0.0116170626 0.0653268918 0.159885943 0.318649292 0.318649292
      0.1623822 0.0160615463 0.00162727328 0.004443096 0.047874894
      0.118098371 0.252186209 0.265476704 0.317226887 0.0764612406
      0.0293514039 0.011031108 0.0268770698 0.00275338651 0.000232237915
      0.0151861021 0.318649292 0.318649292 0.221497074 0.00861232448
      0.000672936207 0.00275338651 0.0186732709 0.0212806351
      0.0883641317 0.318649292 0.318649292 0.106267661 0.0406551026
      0.023611553 0.0313574076 0.067034699 0.0673348308 0.137146771
      0.125197366 0.132665992 0.10867884 0.0624998435 0.0303133745
      0.0762558058 0.116061859 0.195497587 0.256183922 0.176304445
      0.204783514 0.326289982 0.304020494 0.0817210376 0.107122093
      0.0484494455 0.0925613046 0.197739273 0.14621608 0.106775343
      0.0688283667 0.0615326017 0.0335296765 0.0617353879 0.142971933
      0.326289982 0.326289982 0.326289982 0.0559544973 0.165483341
      0.167718843 0.0780120641 0.0704843253 0.0907595083 0.165296122
      0.23455888 0.161723331 0.0918690264 0.127410546 0.112077139
      0.0459106974 0.049272608 0.203646436 0.212311998 0.25371483
      0.25371483 0.25371483 0.110294364 0.0717406198 0.0681158379
      0.116537213 0.0904264972 0.217693627 0.25371483 0.25371483
      0.0759112239 0.0568749942 0.0511972085 0.0339080356 0.0550497249
      0.198304832 0.248764142 0.25371483 0.25371483 0.221363842
      0.107436396 0.0436901897 0.0610897727 0.165900797 0.261303604
      0.232945323 0.19931303 0.166013092 0.139489308 0.0457741916
      0.0308350306 0.0412177593 0.15902181 0.286713153 0.286713153
      0.0827495977 0.0390992686 0.0228118058 0.0237137619 0.0215998106
      0.0376912132 0.286713153 0.256159157 0.244087651 0.181670502
      0.14623408 0.0953525156 0.0627560169 0.0612531677 0.0672174245
      0.188874424 0.286713153 0.286713153 0.0886484683 0.0352914035
      0.0195244458 0.034209758 0.050566297 0.0589192621 0.286713153
      0.3513906 0.15829955 0.00475707278 0.00264887908 0.00439456617
      0.00830521621 0.0062660533 0.0147545924 0.252781689 0.3513906
      0.0662466064 0.00485920673 0.00416188827 0.00676136184
      0.00560066011 0.00825512968 0.0145622622 0.3513906 0.3513906
      0.180252537 0.00842557382 0.00249349489 0.00406569336
      0.00712868292 0.00619793357 0.0107402802 0.3513906 0.3513906
      0.0680320337 0.00734830601 0.00270154048 0.00845339708
      0.0102930423 0.00696487306 0.018380899 0.3513906 0.326762885
      0.0552264899 0.00823917985 0.01394381 0.0262911133 0.00391519628
      0.00839711446 0.09802109 0.326762885 0.24055174 0.0854336321
      0.0206735227 0.0321653783 0.0413495935 0.0495670661 0.0718310773
      0.23433353 0.326762885 0.326762885 0.0485186726 0.00623738626
      0.00634804834 0.0161090586 0.0100424727 0.0112262368 0.102293618
      0.326762885 0.326762885 0.12484324 0.0247234423 0.0129645672
      0.0224094633 0.0684830695 0.0822625235 0.251092076 0.326762885
      0.165855378 0.103293441 0.0527619049 0.0760769323 0.106442168
      0.129573718 0.176502541 0.259910017 0.229525551 0.0787902102
      0.0397661366 0.0435522459 0.0842463896 0.259910017 0.189158112
      0.113833398 0.0969934016 0.0898099467 0.259910017 0.234843567
      0.0557319261 0.0299845356 0.0467542186 0.161977962 0.160608009
      0.259910017 0.259910017 0.259910017 0.144979998 0.0470510088
      0.0918215215 0.259910017 0.128507912 0.059206754 0.224096537
      0.259910017 0.0598279834 0.0296806842 0.0197205581 0.0769386813
      0.264843673 0.264843673 0.181062236 0.0478101224 0.0686320662
      0.0610774644 0.0497664735 0.0299075712 0.05237066 0.18505989
      0.264843673 0.229160413 0.0178967062 0.0568875223 0.264843673
      0.176772654 0.106263608 0.15784806 0.264843673 0.215776667
      0.0945610777 0.107075468 0.264843673 0.264843673 0.183769718
      0.170769587 0.139486179 0.208729237 0.264843673 0.0962175727
      0.0119479792 0.125393569 0.071320489 0.114091314 0.0851301178
      0.205279917 0.270047009 0.270047009 0.198682547 0.0264128931
      0.0731548965 0.212682456 0.0827867687 0.0690561906 0.111186147
      0.201252922 0.106240407 0.0851589665 0.0865155607 0.270047009
      0.156144887 0.216143891 0.221541062 0.270047009 0.270047009
      0.270047009 0.102453969 0.0323211588 0.112620942 0.219644994
      0.0614162609 0.0587066337 0.0831397697 0.146234855 0.0970253944
      0.0593816899 0.116897941 0.237107694 0.232141286 0.0461452939
      0.0899850354 0.110988624 0.0980976149 0.116832167 0.117572159
      0.156628191 0.232141286 0.18267116 0.0913357586 0.121475838
      0.189491898 0.111232042 0.232141286 0.226983666 0.219245657
      0.226645544 0.224353105 0.0374440923 0.133104041 0.205057755
      0.131455302 0.0398129635 0.0429248214 0.112747289 0.232141286
      0.172930464 0.115808703 0.232141286 0.232141286 0.232141286
      0.183493182 0.0959814787 0.14372389 0.169695437 0.0387285575
      0.0420132689 0.0187198985 0.0293381754 0.0917259455 0.291732728
      0.291732728 0.0992340222 0.0563968793 0.185924008 0.188723132
      0.138227925 0.0893892273 0.146038115 0.291732728 0.291732728
      0.120830841 0.112631299 0.0635068044 0.0522890016 0.0775919929
      0.072823897 0.146743327 0.291732728 0.202079073 0.0842504948
      0.0799567103 0.0944494978 0.120877549 0.0821258128 0.0664446875
      0.243698686 0.291732728 0.291732728 0.151947141 0.135631949
      0.232285962 0.175546005 0.152491719 0.100174569 0.0666733161
      0.0829079896 0.0942727923 0.114840142 0.186188936 0.255779803
      0.255779803 0.255779803 0.0862208903 0.0386805199 0.0349117033
      0.0290868804 0.0839526728 0.23424463 0.173767641 0.147796467
      0.089882955 0.0550731681 0.0891862586 0.237739027 0.216692939
      0.151489288 0.231459707 0.255779803 0.255779803 0.255779803
      0.0857244506 0.0566122122 0.0465121008 0.0552990958 0.116472021
      0.255779803 0.259703666 0.266671032 0.172299191 0.0338930972
      0.0598159358 0.0689918771 0.0239367858 0.0449694581 0.182526499
      0.266671032 0.266671032 0.10099946 0.0416049957 0.127334312
      0.0773821995 0.0467675477 0.05247752 0.212630719 0.266671032
      0.266671032 0.25408411 0.0579312965 0.047408957 0.0450486131
      0.0187720992 0.0556834675 0.266671032 0.266671032 0.259894222
      0.150543928 0.0357036442 0.0990702957 0.127678916 0.0645846501
      0.0647616535 0.266671032 0.233825311 0.186609149 0.11886061
      0.146770149 0.233825311 0.169770345 0.134633511 0.0552129634
      0.16623193 0.097011283 0.0673513189 0.120521411 0.168065161
      0.233825311 0.174468502 0.145165965 0.0318107158 0.0391609594
      0.233825311 0.212585881 0.147061184 0.122412071 0.233825311
      0.233825311 0.167256609 0.0925104395 0.233825311 0.0500970148
      0.081635125 0.171119019 0.200984284 0.233825311 0.233825311
      0.212570578 0.053483665 0.0382303037 0.170023978 0.118963644
      0.224274188 0.248915002 0.248915002 0.162199154 0.127028644
      0.0394399501 0.0667815879 0.129133955 0.0819428563 0.113937564
      0.184386611 0.184119195 0.0556358062 0.0867392048 0.0962301418
      0.100610748 0.0348445624 0.122133009 0.248915002 0.248915002
      0.248915002 0.247959554 0.186095491 0.034600839 0.0212124344
      0.0611492135 0.0925893188 0.248915002 0.248915002 0.214972526
      0.180054978 0.220530212 0.166931376 0.0798261911 0.00278210244
      4.66668389e-05 0.00689970376 0.232574612 0.300093442 0.273945838
      0.040135514 0.0014659625 0.00295827305 0.00758740772 0.0198652353
      0.0890318677 0.218426421 0.300093442 0.16096285 0.0368944518
      0.0275945328 0.0307952259 0.00593971461 0.000153188885
      0.0166422054 0.142052084 0.300093442 0.300093442 0.157099873
      0.0442659073 0.00782119296 0.0325650573 0.0667017996 0.24000366
      0.300093442 0.300093442 0.284592032 0.16262114 0.14055638
      0.0573032722 0.0145725487 0.127822876 0.274677724 0.124132045
      0.05876505 0.0367625058 0.0195623431 0.0169714205 0.0252367854
      0.0299527999 0.314481467 0.347149104 0.190272182 0.0255360585
      0.0143350679 0.00755119836 0.0131764077 0.0246102735 0.0541891195
      0.235438317 0.347149104 0.325950861 0.0858178437 0.0426089987
      0.0270575136 0.0401836187 0.0559345856 0.0534196235 0.347149104
      0.347149104 0.272253364 0.0598237514 0.0249294564 0.021084765
      0.0267189704 0.040823184 0.0534008592 0.255390942 0.305030763
      0.305030763 0.0754098147 0.0401861928 0.0168266017 0.0179291572
      0.0518389083 0.163296387 0.20371443 0.305030763 0.305030763
      0.135632262 0.109501384 0.0825964883 0.0830635205 0.148101166
      0.0264202841 0.215055019 0.305030763 0.216060579 0.0488109775
      0.0498352498 0.0539341941 0.0487301014 0.0315231234 0.0867638066
      0.0974694937 0.245370761 0.200200781 0.0878865346 0.163454145
      0.199474737 0.117061377 0.0939874426 0.262822777 0.186380193
      0.0660630912 0.0785939097 0.0414572805 0.0535382964 0.0639969036
      0.0718778372 0.201119915 0.34559384 0.318023354 0.0429681502
      0.0120369075 0.00724179577 0.0294617657 0.0563061051 0.0545013808
      0.34559384 0.219103917 0.111124277 0.100358941 0.053192731
      0.0550717376 0.0873927176 0.0898614824 0.0939875245 0.190140918
      0.34559384 0.228624046 0.136221752 0.0896732807 0.0457971804
      0.0435719192 0.0541177504 0.131087869 0.34559384 0.337397039
      0.1069244 0.00547483657 0.000880983018 0.000791491359
      0.00278247287 0.00544768665 0.00667361543 0.337397039 0.337397039
      0.0611873791 0.00390492147 0.0014195377 0.00308290636
      0.00488857552 0.00180448883 0.0260218233 0.337397039 0.337397039
      0.124437295 0.0333594009 0.0643949136 0.0158165041 0.0305336788
      0.0359132662 0.0469155945 0.337397039 0.337397039 0.159346238
      0.0162494481 0.0606988072 0.0276915412 0.0717757046 0.0721964687
      0.0634481907 0.337397039 0.313735932 0.0614560954 0.00755206589
      0.00159899844 0.00457071653 0.00760613382 0.0100519536 0.120202459
      0.313735932 0.250213206 0.0715848058 0.0241962019 0.0019153402
      0.0165027361 0.0518406332 0.0671281368 0.241901353 0.313735932
      0.313735932 0.146993637 0.0219565891 0.0436142981 0.0415194817
      0.0463258401 0.0750039294 0.13384071 0.313735932 0.313735932
      0.105285794 0.0595923178 0.0427258797 0.0374446027 0.065825358
      0.181095943 0.220665351 0.313735932 0.283282876 0.0989168063
      0.0359017476 0.0105469944 0.0352173783 0.0828954056 0.0803270414
      0.262967825 0.283282876 0.283282876 0.15004985 0.0566067509
      0.0700160414 0.079890117 0.0652750134 0.0261437017 0.107858762
      0.224524349 0.283282876 0.190127313 0.0836444423 0.0517510511
      0.0434228145 0.0872463956 0.145350903 0.214359447 0.283282876
      0.283282876 0.283282876 0.0997076333 0.0572617203 0.0689713657
      0.0582583249 0.0278199855 0.108345166 0.283282876 0.25480473
      0.205138534 0.153671965 0.176919922 0.162678614 0.11654909
      0.0559489019 0.0659568533 0.245475143 0.239104226 0.126228705
      0.178123653 0.152783006 0.18289414 0.142292202 0.0372126512
      0.00783876982 0.0966027528 0.25480473 0.25480473 0.192445695
      0.142072812 0.181664765 0.126496032 0.0804472789 0.061248295
      0.25480473 0.111226581 0.226093024 0.106234848 0.15944007
      0.25480473 0.212201625 0.0571515113 0.0117337313 0.101562411
      0.135894075 0.144085974 0.240924105 0.240924105 0.240924105
      0.240924105 0.0903238207 0.079584375 0.0968812108 0.129760042
      0.038108211 0.0612362251 0.113043822 0.11837972 0.102850333
      0.111397125 0.240924105 0.168022096 0.123158097 0.221422404
      0.17615436 0.240924105 0.240924105 0.240924105 0.10749796
      0.0712082237 0.119742557 0.125687361 0.118947588 0.233582377
      0.240924105 0.16064696 0.0628356785 0.0965462327 0.177436292
      0.175434083 0.135728911 0.0229982026 0.0993958786 0.252026737
      0.237767041 0.0763245225 0.0509523749 0.149777099 0.153374121
      0.122292854 0.0923357829 0.252026737 0.252026737 0.252026737
      0.218080685 0.0454293191 0.0641904101 0.126794279 0.0498989113
      0.0461352281 0.234779924 0.252026737 0.252026737 0.0961222649
      0.0487279147 0.0929366127 0.0981390625 0.179017514 0.140428662
      0.252026737 0.252026737 0.252026737 0.153146565 0.0229424629
      0.0711780861 0.149478152 0.0549933352 0.0698280632 0.14886491
      0.113714352 0.177260548 0.28494674 0.07592237 0.0244609956
      0.0481749475 0.0372697636 0.0446629934 0.0805899948 0.10376662
      0.28494674 0.28494674 0.28494674 0.107214689 0.0579864308
      0.0991745964 0.150011212 0.28494674 0.169784158 0.103507258
      0.0903820693 0.0106753968 0.0166715402 0.0491001718 0.077017948
      0.236094415 0.28494674 0.28494674 0.28494674 0.28494674
      0.0510328449 0.0135067804 0.022146767 0.0638201088 0.0877598226
      0.0433295295 0.0774667785 0.164202258 0.236786172 0.223964676
      0.127630487 0.130035833 0.236786172 0.236786172 0.113585673
      0.139076263 0.136915371 0.0888227373 0.106476963 0.174278423
      0.236786172 0.124378316 0.170665398 0.219058916 0.199981183
      0.209667504 0.169643551 0.0590505227 0.0629279166 0.0756412223
      0.217726141 0.236786172 0.156672463 0.236786172 0.167943269
      0.112590566 0.0985206738 0.183228284 0.236786172 0.269792736
      0.185265169 0.0945824459 0.0582178906 0.0642920956 0.0418585427
      0.0326545872 0.121110342 0.269792736 0.269792736 0.179619059
      0.0933043063 0.0379971042 0.0597964078 0.0955715925 0.0625692755
      0.201367408 0.269792736 0.219721869 0.187961921 0.12729159
      0.167938441 0.10523355 0.0915611312 0.0616214387 0.147541985
      0.249768987 0.269792736 0.159714252 0.108065605 0.168165952
      0.131916493 0.0915435925 0.0816301182 0.243674606 0.269792736
      0.163379669 0.120215528 0.0960020572 0.0811812952 0.170639783
      0.208593905 0.127646282 0.196624368 0.22431314 0.0209328979
      0.0851799846 0.136111572 0.188193053 0.22431314 0.17705752
      0.141402453 0.05562694 0.0322416835 0.22431314 0.11838007
      0.127834305 0.144728869 0.202625513 0.171036407 0.197747231
      0.22431314 0.22431314 0.0622584037 0.0938576385 0.211062923
      0.22431314 0.22431314 0.22431314 0.22431314 0.150314495
      0.0521220677 0.0127926152 0.154873505 0.250583887 0.250583887
      0.244204253 0.129396737 0.0831446275 0.0160603281 0.00574571127
      0.0397950932 0.10631898 0.250583887 0.212854788 0.1042445
      0.100307405 0.128257677 0.13554059 0.0522172451 0.0237260293
      0.202682123 0.250583887 0.250583887 0.250583887 0.250583887
      0.188210651 0.0602375865 0.014295483 0.106895536 0.23679176
      0.250583887 0.250583887 0.0960726067 0.0732525215 0.0727614537
      0.156284794 0.123492211 0.0167009663 0.0922062173 0.11474783
      0.194593102 0.260169804 0.204354927 0.136551663 0.054890383
      0.00796746183 0.0576310642 0.210507527 0.260169804 0.260169804
      0.230241507 0.128550306 0.152622193 0.135728911 0.0448872633
      0.0783901289 0.260169804 0.260169804 0.260169804 0.196167931
      0.0826151222 0.044182051 0.0166886188 0.0173089132 0.15225476
      0.260169804 0.260169804 0.260169804 0.140500382 0.0410673656
      0.0551970415 0.0422323309 0.0241694413 0.127559736 0.269272774
      0.269272774 0.269272774 0.147030845 0.0371915363 0.0356344357
      0.0574415401 0.0763253421 0.12797761 0.269272774 0.269272774
      0.269272774 0.158485666 0.0678992271 0.0658870786 0.0777677745
      0.091166541 0.164508492 0.269272774 0.269272774 0.215372413
      0.0901376307 0.0193122793 0.0227174889 0.047032278 0.0586262867
      0.137158483 0.269272774 0.148820072 0.116989143 0.115357101
      0.0594819672 0.0747607052 0.202873349 0.154644027 0.0984436348
      0.12160936 0.226378649 0.11729788 0.10154672 0.0735048279
      0.0733337179 0.0952905566 0.0742100775 0.147701323 0.203060031
      0.20838131 0.13300769 0.0749360099 0.12613216 0.185999855
      0.170043394 0.154859722 0.163692012 0.132226348 0.0608449541
      0.0698351711 0.131030872 0.0644968599 0.115956523 0.255977929
      0.234432355 0.275232732 0.275232732 0.275232732 0.103752322
      0.0935305282 0.0430228002 0.175097376 0.275232732 0.275232732
      0.112446904 0.0920926854 0.128988668 0.104856998 0.0551375598
      0.0740876719 0.109805778 0.118593425 0.101726323 0.230940342
      0.15237242 0.172745869 0.204323232 0.123933218 0.101256005
      0.0698436722 0.122736409 0.230940342 0.230940342 0.230940342
      0.196305379 0.131813094 0.0633950904 0.0587784909 0.145388141
      0.230940342 0.230940342 0.230940342 0.170777917 0.193670884
      0.230940342 0.184925422 0.179780543 0.1540512 0.20524779
      0.230940342 0.240296647 0.162349716 0.0826566741 0.15530321
      0.0722237527 0.097474061 0.0824398175 0.100423627 0.240296647
      0.240296647 0.171793401 0.0368958227 0.12710683 0.0676712021
      0.135913089 0.157147378 0.167319834 0.240296647 0.240296647
      0.133432448 0.12253321 0.149604321 0.144765466 0.142086774
      0.0938045159 0.193055809 0.240296647 0.240296647 0.105745338
      0.0922665298 0.103745468 0.218851879 0.155747324 0.145629972
      0.240296647 0.240296647 0.24198544 0.105936222 0.0658064634
      0.131179839 0.0938481912 0.0926959664 0.103846207 0.150455505
      0.24198544 0.24198544 0.119560592 0.185054079 0.240181878
      0.145461157 0.133514971 0.110487252 0.125326931 0.24198544
      0.213359594 0.21737884 0.24198544 0.213515654 0.168237358
      0.0874450952 0.0782401934 0.124477565 0.143550068 0.136018589
      0.24198544 0.24198544 0.24198544 0.164615974 0.0848608762
      0.0107506271 0.0236323085 0.0490344428 0.275177419 0.275177419
      0.202867076 0.223555267 0.120917611 0.125039443 0.0563971475
      0.0936814398 0.275177419 0.275177419 0.275177419 0.0752236173
      0.0713512972 0.0721959621 0.0590778254 0.0151861785 0.0872232839
      0.274559945 0.15917179 0.275177419 0.275177419 0.275177419
      0.160374969 0.091212675 0.00301295426 0.014159169 0.0376771837
      0.164076462 0.116424836 0.0868175253 0.153368518 0.111675777
      0.0624069795 0.00771210529 0.0355838053 0.0722450018 0.256942272
      0.256942272 0.111023426 0.128200948 0.170446068 0.114494964
      0.0501635969 0.0810775682 0.256942272 0.125844136 0.206458449
      0.10219086 0.188826099 0.239712417 0.216556519 0.0568816364
      0.019169692 0.141397491 0.115372486 0.0812004134 0.153691009
      0.256942272 0.256942272 0.10912355 0.0274133943 0.0355445407
      0.0979375988 0.111441784 0.170768678 0.256942272 0.256942272
      0.256942272 0.20228067 0.0544096008 0.00879825 0.0646011531
      0.176753849 0.241634756 0.1162173 0.162485808 0.172998831
      0.16463913 0.0552629158 0.0252879467 0.135309473 0.174414754
      0.181219757 0.215280548 0.158226654 0.0954222009 0.0296037924
      0.0336130336 0.0399557017 0.132838368 0.241634756 0.241634756
      0.241634756 0.241634756 0.204292774 0.196938381 0.0729581267
      0.0452873446 0.184114173 0.241634756 0.241634756 0.225908011
      0.163697958 0.105729729 0.0544264615 0.0828066692 0.0845741779
